<?xml version="1.0" encoding="UTF-8"?>
<!-- This network was created in GeNIe Academic, which can be used for academic teaching and research purposes only -->
<smile version="1.0" id="Unnamed" numsamples="100000" discsamples="10000">
	<nodes>
		<cpt id="passed_ship0" dynamic="plate">
			<state id="false" />
			<state id="true" />
			<probabilities>0.8 0.2</probabilities>
		</cpt>
		<cpt id="distance_at_cpa_towards_ship0" dynamic="plate">
			<state id="State01" />
			<state id="State02" />
			<state id="State03" />
			<state id="State04" />
			<state id="State05" />
			<state id="State06" />
			<state id="State07" />
			<state id="State08" />
			<state id="State09" />
			<state id="State10" />
			<state id="State11" />
			<state id="State12" />
			<state id="State13" />
			<state id="State14" />
			<state id="State15" />
			<state id="State16" />
			<state id="State17" />
			<state id="State18" />
			<state id="State19" />
			<state id="State20" />
			<state id="State21" />
			<state id="State22" />
			<state id="State23" />
			<state id="State24" />
			<state id="State25" />
			<state id="State26" />
			<state id="State27" />
			<state id="State28" />
			<state id="State29" />
			<state id="State30" />
			<probabilities>0.03333333333333333 0.03333333333333333 0.03333333333333333 0.03333333333333333 0.03333333333333333 0.03333333333333333 0.03333333333333333 0.03333333333333333 0.03333333333333333 0.03333333333333333 0.03333333333333333 0.03333333333333333 0.03333333333333333 0.03333333333333333 0.03333333333333333 0.03333333333333333 0.03333333333333333 0.03333333333333333 0.03333333333333333 0.03333333333333333 0.03333333333333333 0.03333333333333333 0.03333333333333333 0.03333333333333333 0.03333333333333333 0.03333333333333333 0.03333333333333333 0.03333333333333333 0.03333333333333333 0.03333333333333344</probabilities>
		</cpt>
		<cpt id="intention_safe_distance_midpoint">
			<state id="State01" />
			<state id="State02" />
			<state id="State03" />
			<state id="State04" />
			<state id="State05" />
			<state id="State06" />
			<state id="State07" />
			<state id="State08" />
			<state id="State09" />
			<state id="State10" />
			<state id="State11" />
			<state id="State12" />
			<state id="State13" />
			<state id="State14" />
			<state id="State15" />
			<state id="State16" />
			<state id="State17" />
			<state id="State18" />
			<state id="State19" />
			<state id="State20" />
			<state id="State21" />
			<state id="State22" />
			<state id="State23" />
			<state id="State24" />
			<state id="State25" />
			<state id="State26" />
			<state id="State27" />
			<state id="State28" />
			<state id="State29" />
			<state id="State30" />
			<probabilities>0.03593031911292579 0.01886897258663219 0.02595736753421306 0.03431301098793724 0.04358558370974874 0.05320014465193962 0.06239771916667697 0.07032514063960221 0.07616203217122114 0.07925970943910304 0.07925970943910299 0.07616203217122119 0.07032514063960227 0.06239771916667691 0.05320014465193967 0.04358558370974874 0.03431301098793726 0.02595736753421296 0.01886897258663223 0.01318018716474656 0.008846684434680618 0.005705911588902435 0.003536347900877423 0.002106057693290753 0.001205232298797876 0.000662760093714243 0.0003502086722390052 0.0001778206755193024 8.676054623246721e-05 7.234804392508565e-05</probabilities>
		</cpt>
		<cpt id="safe_distance_at_CPA_towards_ship0" dynamic="plate">
			<state id="false" />
			<state id="true" />
			<parents>intention_safe_distance_midpoint distance_at_cpa_towards_ship0</parents>
			<probabilities>0.5 0.5 0 1 0 1 0 1 0 1 0 1 0 1 0 1 0 1 0 1 0 1 0 1 0 1 0 1 0 1 0 1 0 1 0 1 0 1 0 1 0 1 0 1 0 1 0 1 0 1 0 1 0 1 0 1 0 1 0 1 1 0 0.5 0.5 0 1 0 1 0 1 0 1 0 1 0 1 0 1 0 1 0 1 0 1 0 1 0 1 0 1 0 1 0 1 0 1 0 1 0 1 0 1 0 1 0 1 0 1 0 1 0 1 0 1 0 1 0 1 0 1 1 0 1 0 0.5 0.5 0 1 0 1 0 1 0 1 0 1 0 1 0 1 0 1 0 1 0 1 0 1 0 1 0 1 0 1 0 1 0 1 0 1 0 1 0 1 0 1 0 1 0 1 0 1 0 1 0 1 0 1 0 1 1 0 1 0 1 0 0.5 0.5 0 1 0 1 0 1 0 1 0 1 0 1 0 1 0 1 0 1 0 1 0 1 0 1 0 1 0 1 0 1 0 1 0 1 0 1 0 1 0 1 0 1 0 1 0 1 0 1 0 1 0 1 1 0 1 0 1 0 1 0 0.5 0.5 0 1 0 1 0 1 0 1 0 1 0 1 0 1 0 1 0 1 0 1 0 1 0 1 0 1 0 1 0 1 0 1 0 1 0 1 0 1 0 1 0 1 0 1 0 1 0 1 0 1 1 0 1 0 1 0 1 0 1 0 0.5 0.5 0 1 0 1 0 1 0 1 0 1 0 1 0 1 0 1 0 1 0 1 0 1 0 1 0 1 0 1 0 1 0 1 0 1 0 1 0 1 0 1 0 1 0 1 0 1 0 1 1 0 1 0 1 0 1 0 1 0 1 0 0.5 0.5 0 1 0 1 0 1 0 1 0 1 0 1 0 1 0 1 0 1 0 1 0 1 0 1 0 1 0 1 0 1 0 1 0 1 0 1 0 1 0 1 0 1 0 1 0 1 1 0 1 0 1 0 1 0 1 0 1 0 1 0 0.5 0.5 0 1 0 1 0 1 0 1 0 1 0 1 0 1 0 1 0 1 0 1 0 1 0 1 0 1 0 1 0 1 0 1 0 1 0 1 0 1 0 1 0 1 0 1 1 0 1 0 1 0 1 0 1 0 1 0 1 0 1 0 0.5 0.5 0 1 0 1 0 1 0 1 0 1 0 1 0 1 0 1 0 1 0 1 0 1 0 1 0 1 0 1 0 1 0 1 0 1 0 1 0 1 0 1 0 1 1 0 1 0 1 0 1 0 1 0 1 0 1 0 1 0 1 0 0.5 0.5 0 1 0 1 0 1 0 1 0 1 0 1 0 1 0 1 0 1 0 1 0 1 0 1 0 1 0 1 0 1 0 1 0 1 0 1 0 1 0 1 1 0 1 0 1 0 1 0 1 0 1 0 1 0 1 0 1 0 1 0 0.5 0.5 0 1 0 1 0 1 0 1 0 1 0 1 0 1 0 1 0 1 0 1 0 1 0 1 0 1 0 1 0 1 0 1 0 1 0 1 0 1 1 0 1 0 1 0 1 0 1 0 1 0 1 0 1 0 1 0 1 0 1 0 0.5 0.5 0 1 0 1 0 1 0 1 0 1 0 1 0 1 0 1 0 1 0 1 0 1 0 1 0 1 0 1 0 1 0 1 0 1 0 1 1 0 1 0 1 0 1 0 1 0 1 0 1 0 1 0 1 0 1 0 1 0 1 0 0.5 0.5 0 1 0 1 0 1 0 1 0 1 0 1 0 1 0 1 0 1 0 1 0 1 0 1 0 1 0 1 0 1 0 1 0 1 1 0 1 0 1 0 1 0 1 0 1 0 1 0 1 0 1 0 1 0 1 0 1 0 1 0 0.5 0.5 0 1 0 1 0 1 0 1 0 1 0 1 0 1 0 1 0 1 0 1 0 1 0 1 0 1 0 1 0 1 0 1 1 0 1 0 1 0 1 0 1 0 1 0 1 0 1 0 1 0 1 0 1 0 1 0 1 0 1 0 0.5 0.5 0 1 0 1 0 1 0 1 0 1 0 1 0 1 0 1 0 1 0 1 0 1 0 1 0 1 0 1 0 1 1 0 1 0 1 0 1 0 1 0 1 0 1 0 1 0 1 0 1 0 1 0 1 0 1 0 1 0 1 0 0.5 0.5 0 1 0 1 0 1 0 1 0 1 0 1 0 1 0 1 0 1 0 1 0 1 0 1 0 1 0 1 1 0 1 0 1 0 1 0 1 0 1 0 1 0 1 0 1 0 1 0 1 0 1 0 1 0 1 0 1 0 1 0 0.5 0.5 0 1 0 1 0 1 0 1 0 1 0 1 0 1 0 1 0 1 0 1 0 1 0 1 0 1 1 0 1 0 1 0 1 0 1 0 1 0 1 0 1 0 1 0 1 0 1 0 1 0 1 0 1 0 1 0 1 0 1 0 0.5 0.5 0 1 0 1 0 1 0 1 0 1 0 1 0 1 0 1 0 1 0 1 0 1 0 1 1 0 1 0 1 0 1 0 1 0 1 0 1 0 1 0 1 0 1 0 1 0 1 0 1 0 1 0 1 0 1 0 1 0 1 0 0.5 0.5 0 1 0 1 0 1 0 1 0 1 0 1 0 1 0 1 0 1 0 1 0 1 1 0 1 0 1 0 1 0 1 0 1 0 1 0 1 0 1 0 1 0 1 0 1 0 1 0 1 0 1 0 1 0 1 0 1 0 1 0 0.5 0.5 0 1 0 1 0 1 0 1 0 1 0 1 0 1 0 1 0 1 0 1 1 0 1 0 1 0 1 0 1 0 1 0 1 0 1 0 1 0 1 0 1 0 1 0 1 0 1 0 1 0 1 0 1 0 1 0 1 0 1 0 0.5 0.5 0 1 0 1 0 1 0 1 0 1 0 1 0 1 0 1 0 1 1 0 1 0 1 0 1 0 1 0 1 0 1 0 1 0 1 0 1 0 1 0 1 0 1 0 1 0 1 0 1 0 1 0 1 0 1 0 1 0 1 0 0.5 0.5 0 1 0 1 0 1 0 1 0 1 0 1 0 1 0 1 1 0 1 0 1 0 1 0 1 0 1 0 1 0 1 0 1 0 1 0 1 0 1 0 1 0 1 0 1 0 1 0 1 0 1 0 1 0 1 0 1 0 1 0 0.5 0.5 0 1 0 1 0 1 0 1 0 1 0 1 0 1 1 0 1 0 1 0 1 0 1 0 1 0 1 0 1 0 1 0 1 0 1 0 1 0 1 0 1 0 1 0 1 0 1 0 1 0 1 0 1 0 1 0 1 0 1 0 0.5 0.5 0 1 0 1 0 1 0 1 0 1 0 1 1 0 1 0 1 0 1 0 1 0 1 0 1 0 1 0 1 0 1 0 1 0 1 0 1 0 1 0 1 0 1 0 1 0 1 0 1 0 1 0 1 0 1 0 1 0 1 0 0.5 0.5 0 1 0 1 0 1 0 1 0 1 1 0 1 0 1 0 1 0 1 0 1 0 1 0 1 0 1 0 1 0 1 0 1 0 1 0 1 0 1 0 1 0 1 0 1 0 1 0 1 0 1 0 1 0 1 0 1 0 1 0 0.5 0.5 0 1 0 1 0 1 0 1 1 0 1 0 1 0 1 0 1 0 1 0 1 0 1 0 1 0 1 0 1 0 1 0 1 0 1 0 1 0 1 0 1 0 1 0 1 0 1 0 1 0 1 0 1 0 1 0 1 0 1 0 0.5 0.5 0 1 0 1 0 1 1 0 1 0 1 0 1 0 1 0 1 0 1 0 1 0 1 0 1 0 1 0 1 0 1 0 1 0 1 0 1 0 1 0 1 0 1 0 1 0 1 0 1 0 1 0 1 0 1 0 1 0 1 0 0.5 0.5 0 1 0 1 1 0 1 0 1 0 1 0 1 0 1 0 1 0 1 0 1 0 1 0 1 0 1 0 1 0 1 0 1 0 1 0 1 0 1 0 1 0 1 0 1 0 1 0 1 0 1 0 1 0 1 0 1 0 1 0 0.5 0.5 0 1 1 0 1 0 1 0 1 0 1 0 1 0 1 0 1 0 1 0 1 0 1 0 1 0 1 0 1 0 1 0 1 0 1 0 1 0 1 0 1 0 1 0 1 0 1 0 1 0 1 0 1 0 1 0 1 0 1 0 0.5 0.5</probabilities>
		</cpt>
		<cpt id="crossing_distance_front_towards_ship0" dynamic="plate">
			<state id="State01" />
			<state id="State02" />
			<state id="State03" />
			<state id="State04" />
			<state id="State05" />
			<state id="State06" />
			<state id="State07" />
			<state id="State08" />
			<state id="State09" />
			<state id="State10" />
			<state id="State11" />
			<state id="State12" />
			<state id="State13" />
			<state id="State14" />
			<state id="State15" />
			<state id="State16" />
			<state id="State17" />
			<state id="State18" />
			<state id="State19" />
			<state id="State20" />
			<state id="State21" />
			<state id="State22" />
			<state id="State23" />
			<state id="State24" />
			<state id="State25" />
			<state id="State26" />
			<state id="State27" />
			<state id="State28" />
			<state id="State29" />
			<state id="State30" />
			<probabilities>1e-05 1e-05 1e-05 1e-05 1e-05 2e-05 4e-05 0.00017 0.00031 0.00062 0.00119 0.00197 0.0037 0.00615 0.00861 0.01324 0.01902 0.02584 0.033 0.0426 0.05166 0.06346 0.07105 0.07563 0.07981000000000001 0.07932 0.07631 0.07006999999999999 0.06295000000000001 0.21321</probabilities>
		</cpt>
		<cpt id="intention_safe_distance_front">
			<state id="State01" />
			<state id="State02" />
			<state id="State03" />
			<state id="State04" />
			<state id="State05" />
			<state id="State06" />
			<state id="State07" />
			<state id="State08" />
			<state id="State09" />
			<state id="State10" />
			<state id="State11" />
			<state id="State12" />
			<state id="State13" />
			<state id="State14" />
			<state id="State15" />
			<state id="State16" />
			<state id="State17" />
			<state id="State18" />
			<state id="State19" />
			<state id="State20" />
			<state id="State21" />
			<state id="State22" />
			<state id="State23" />
			<state id="State24" />
			<state id="State25" />
			<state id="State26" />
			<state id="State27" />
			<state id="State28" />
			<state id="State29" />
			<state id="State30" />
			<probabilities>0.007253771124867826 0.005880374566153291 0.009615986257158081 0.01497004786522104 0.0221867272893716 0.03130431262309603 0.04204904317663757 0.05377113584293583 0.06546113880148163 0.07586810573496233 0.08370980458905747 0.08792955212905729 0.08792955212905751 0.08370980458905741 0.07586810573496217 0.06546113880148174 0.0537711358429358 0.04204904317663749 0.03130431262309608 0.02218672728937165 0.01497004786522094 0.009615986257158093 0.005880374566153312 0.003423390557278028 0.001897352297607902 0.001001104302466915 0.0005028636343181736 0.000240469718277625 0.0001094736288730358 7.911698604612383e-05</probabilities>
		</cpt>
		<cpt id="safe_crossing_front_towards_ship0" dynamic="plate">
			<state id="false" />
			<state id="true" />
			<parents>intention_safe_distance_front crossing_distance_front_towards_ship0</parents>
			<probabilities>0.5 0.5 0 1 0 1 0 1 0 1 0 1 0 1 0 1 0 1 0 1 0 1 0 1 0 1 0 1 0 1 0 1 0 1 0 1 0 1 0 1 0 1 0 1 0 1 0 1 0 1 0 1 0 1 0 1 0 1 0 1 1 0 0.5 0.5 0 1 0 1 0 1 0 1 0 1 0 1 0 1 0 1 0 1 0 1 0 1 0 1 0 1 0 1 0 1 0 1 0 1 0 1 0 1 0 1 0 1 0 1 0 1 0 1 0 1 0 1 0 1 0 1 1 0 1 0 0.5 0.5 0 1 0 1 0 1 0 1 0 1 0 1 0 1 0 1 0 1 0 1 0 1 0 1 0 1 0 1 0 1 0 1 0 1 0 1 0 1 0 1 0 1 0 1 0 1 0 1 0 1 0 1 0 1 1 0 1 0 1 0 0.5 0.5 0 1 0 1 0 1 0 1 0 1 0 1 0 1 0 1 0 1 0 1 0 1 0 1 0 1 0 1 0 1 0 1 0 1 0 1 0 1 0 1 0 1 0 1 0 1 0 1 0 1 0 1 1 0 1 0 1 0 1 0 0.5 0.5 0 1 0 1 0 1 0 1 0 1 0 1 0 1 0 1 0 1 0 1 0 1 0 1 0 1 0 1 0 1 0 1 0 1 0 1 0 1 0 1 0 1 0 1 0 1 0 1 0 1 1 0 1 0 1 0 1 0 1 0 0.5 0.5 0 1 0 1 0 1 0 1 0 1 0 1 0 1 0 1 0 1 0 1 0 1 0 1 0 1 0 1 0 1 0 1 0 1 0 1 0 1 0 1 0 1 0 1 0 1 0 1 1 0 1 0 1 0 1 0 1 0 1 0 0.5 0.5 0 1 0 1 0 1 0 1 0 1 0 1 0 1 0 1 0 1 0 1 0 1 0 1 0 1 0 1 0 1 0 1 0 1 0 1 0 1 0 1 0 1 0 1 0 1 1 0 1 0 1 0 1 0 1 0 1 0 1 0 0.5 0.5 0 1 0 1 0 1 0 1 0 1 0 1 0 1 0 1 0 1 0 1 0 1 0 1 0 1 0 1 0 1 0 1 0 1 0 1 0 1 0 1 0 1 0 1 1 0 1 0 1 0 1 0 1 0 1 0 1 0 1 0 0.5 0.5 0 1 0 1 0 1 0 1 0 1 0 1 0 1 0 1 0 1 0 1 0 1 0 1 0 1 0 1 0 1 0 1 0 1 0 1 0 1 0 1 0 1 1 0 1 0 1 0 1 0 1 0 1 0 1 0 1 0 1 0 0.5 0.5 0 1 0 1 0 1 0 1 0 1 0 1 0 1 0 1 0 1 0 1 0 1 0 1 0 1 0 1 0 1 0 1 0 1 0 1 0 1 0 1 1 0 1 0 1 0 1 0 1 0 1 0 1 0 1 0 1 0 1 0 0.5 0.5 0 1 0 1 0 1 0 1 0 1 0 1 0 1 0 1 0 1 0 1 0 1 0 1 0 1 0 1 0 1 0 1 0 1 0 1 0 1 1 0 1 0 1 0 1 0 1 0 1 0 1 0 1 0 1 0 1 0 1 0 0.5 0.5 0 1 0 1 0 1 0 1 0 1 0 1 0 1 0 1 0 1 0 1 0 1 0 1 0 1 0 1 0 1 0 1 0 1 0 1 1 0 1 0 1 0 1 0 1 0 1 0 1 0 1 0 1 0 1 0 1 0 1 0 0.5 0.5 0 1 0 1 0 1 0 1 0 1 0 1 0 1 0 1 0 1 0 1 0 1 0 1 0 1 0 1 0 1 0 1 0 1 1 0 1 0 1 0 1 0 1 0 1 0 1 0 1 0 1 0 1 0 1 0 1 0 1 0 0.5 0.5 0 1 0 1 0 1 0 1 0 1 0 1 0 1 0 1 0 1 0 1 0 1 0 1 0 1 0 1 0 1 0 1 1 0 1 0 1 0 1 0 1 0 1 0 1 0 1 0 1 0 1 0 1 0 1 0 1 0 1 0 0.5 0.5 0 1 0 1 0 1 0 1 0 1 0 1 0 1 0 1 0 1 0 1 0 1 0 1 0 1 0 1 0 1 1 0 1 0 1 0 1 0 1 0 1 0 1 0 1 0 1 0 1 0 1 0 1 0 1 0 1 0 1 0 0.5 0.5 0 1 0 1 0 1 0 1 0 1 0 1 0 1 0 1 0 1 0 1 0 1 0 1 0 1 0 1 1 0 1 0 1 0 1 0 1 0 1 0 1 0 1 0 1 0 1 0 1 0 1 0 1 0 1 0 1 0 1 0 0.5 0.5 0 1 0 1 0 1 0 1 0 1 0 1 0 1 0 1 0 1 0 1 0 1 0 1 0 1 1 0 1 0 1 0 1 0 1 0 1 0 1 0 1 0 1 0 1 0 1 0 1 0 1 0 1 0 1 0 1 0 1 0 0.5 0.5 0 1 0 1 0 1 0 1 0 1 0 1 0 1 0 1 0 1 0 1 0 1 0 1 1 0 1 0 1 0 1 0 1 0 1 0 1 0 1 0 1 0 1 0 1 0 1 0 1 0 1 0 1 0 1 0 1 0 1 0 0.5 0.5 0 1 0 1 0 1 0 1 0 1 0 1 0 1 0 1 0 1 0 1 0 1 1 0 1 0 1 0 1 0 1 0 1 0 1 0 1 0 1 0 1 0 1 0 1 0 1 0 1 0 1 0 1 0 1 0 1 0 1 0 0.5 0.5 0 1 0 1 0 1 0 1 0 1 0 1 0 1 0 1 0 1 0 1 1 0 1 0 1 0 1 0 1 0 1 0 1 0 1 0 1 0 1 0 1 0 1 0 1 0 1 0 1 0 1 0 1 0 1 0 1 0 1 0 0.5 0.5 0 1 0 1 0 1 0 1 0 1 0 1 0 1 0 1 0 1 1 0 1 0 1 0 1 0 1 0 1 0 1 0 1 0 1 0 1 0 1 0 1 0 1 0 1 0 1 0 1 0 1 0 1 0 1 0 1 0 1 0 0.5 0.5 0 1 0 1 0 1 0 1 0 1 0 1 0 1 0 1 1 0 1 0 1 0 1 0 1 0 1 0 1 0 1 0 1 0 1 0 1 0 1 0 1 0 1 0 1 0 1 0 1 0 1 0 1 0 1 0 1 0 1 0 0.5 0.5 0 1 0 1 0 1 0 1 0 1 0 1 0 1 1 0 1 0 1 0 1 0 1 0 1 0 1 0 1 0 1 0 1 0 1 0 1 0 1 0 1 0 1 0 1 0 1 0 1 0 1 0 1 0 1 0 1 0 1 0 0.5 0.5 0 1 0 1 0 1 0 1 0 1 0 1 1 0 1 0 1 0 1 0 1 0 1 0 1 0 1 0 1 0 1 0 1 0 1 0 1 0 1 0 1 0 1 0 1 0 1 0 1 0 1 0 1 0 1 0 1 0 1 0 0.5 0.5 0 1 0 1 0 1 0 1 0 1 1 0 1 0 1 0 1 0 1 0 1 0 1 0 1 0 1 0 1 0 1 0 1 0 1 0 1 0 1 0 1 0 1 0 1 0 1 0 1 0 1 0 1 0 1 0 1 0 1 0 0.5 0.5 0 1 0 1 0 1 0 1 1 0 1 0 1 0 1 0 1 0 1 0 1 0 1 0 1 0 1 0 1 0 1 0 1 0 1 0 1 0 1 0 1 0 1 0 1 0 1 0 1 0 1 0 1 0 1 0 1 0 1 0 0.5 0.5 0 1 0 1 0 1 1 0 1 0 1 0 1 0 1 0 1 0 1 0 1 0 1 0 1 0 1 0 1 0 1 0 1 0 1 0 1 0 1 0 1 0 1 0 1 0 1 0 1 0 1 0 1 0 1 0 1 0 1 0 0.5 0.5 0 1 0 1 1 0 1 0 1 0 1 0 1 0 1 0 1 0 1 0 1 0 1 0 1 0 1 0 1 0 1 0 1 0 1 0 1 0 1 0 1 0 1 0 1 0 1 0 1 0 1 0 1 0 1 0 1 0 1 0 0.5 0.5 0 1 1 0 1 0 1 0 1 0 1 0 1 0 1 0 1 0 1 0 1 0 1 0 1 0 1 0 1 0 1 0 1 0 1 0 1 0 1 0 1 0 1 0 1 0 1 0 1 0 1 0 1 0 1 0 1 0 1 0 0.5 0.5</probabilities>
		</cpt>
		<cpt id="intention_ignoring_safety">
			<state id="false" />
			<state id="true" />
			<probabilities>0.99 0.01</probabilities>
		</cpt>
		<cpt id="safe_distance_to_ship0" dynamic="plate">
			<state id="false" />
			<state id="true" />
			<parents>intention_ignoring_safety safe_distance_at_CPA_towards_ship0 safe_crossing_front_towards_ship0</parents>
			<probabilities>1 0 1 0 1 0 0 1 0 1 0 1 0 1 0 1</probabilities>
		</cpt>
		<deterministic id="safely_passed_ship0" dynamic="plate">
			<state id="false" />
			<state id="true" />
			<parents>passed_ship0 safe_distance_to_ship0</parents>
			<resultingstates>false false false true</resultingstates>
		</deterministic>
		<cpt id="change_in_course" dynamic="plate">
			<state id="portwards" />
			<state id="none" />
			<state id="starboardwards" />
			<probabilities>0.3333333333333333 0.3333333333333334 0.3333333333333333</probabilities>
		</cpt>
		<cpt id="change_in_speed" dynamic="plate">
			<state id="lower" />
			<state id="similar" />
			<state id="higher" />
			<probabilities>0.3333333333333333 0.3333333333333334 0.3333333333333333</probabilities>
		</cpt>
		<deterministic id="stands_on_correctly" dynamic="plate">
			<state id="false" />
			<state id="true" />
			<parents>change_in_course change_in_speed</parents>
			<resultingstates>false false false false true false false false false</resultingstates>
		</deterministic>
		<deterministic id="stands_on_correctly_or_forced_to_give_way" dynamic="plate">
			<state id="false" />
			<state id="true" />
			<parents>stands_on_correctly</parents>
			<resultingstates>false true</resultingstates>
		</deterministic>
		<cpt id="colav_situation_towards_ship0">
			<state id="HO" />
			<state id="CR_SS" />
			<state id="OT_ing" />
			<state id="CR_PS" />
			<state id="OT_en" />
			<probabilities>0.2 0.2 0.2 0.2 0.2</probabilities>
		</cpt>
		<cpt id="priority_intention_to_ship0">
			<state id="lower" />
			<state id="similar" />
			<state id="higher" />
			<probabilities>0.05 0.9 0.05</probabilities>
		</cpt>
		<deterministic id="role_towards_ship0">
			<state id="GW" />
			<state id="SO" />
			<parents>colav_situation_towards_ship0 priority_intention_to_ship0</parents>
			<resultingstates>GW GW SO GW GW SO GW GW SO GW SO SO GW SO SO</resultingstates>
		</deterministic>
		<cpt id="two_times_distance_to_midpoint_at_cpa_to_ship0" dynamic="plate">
			<state id="State01" />
			<state id="State02" />
			<state id="State03" />
			<state id="State04" />
			<state id="State05" />
			<state id="State06" />
			<state id="State07" />
			<state id="State08" />
			<state id="State09" />
			<state id="State10" />
			<state id="State11" />
			<state id="State12" />
			<state id="State13" />
			<state id="State14" />
			<state id="State15" />
			<state id="State16" />
			<state id="State17" />
			<state id="State18" />
			<state id="State19" />
			<state id="State20" />
			<state id="State21" />
			<state id="State22" />
			<state id="State23" />
			<state id="State24" />
			<state id="State25" />
			<state id="State26" />
			<state id="State27" />
			<state id="State28" />
			<state id="State29" />
			<state id="State30" />
			<probabilities>0.03333333333333333 0.03333333333333333 0.03333333333333333 0.03333333333333333 0.03333333333333333 0.03333333333333333 0.03333333333333333 0.03333333333333333 0.03333333333333333 0.03333333333333333 0.03333333333333333 0.03333333333333333 0.03333333333333333 0.03333333333333333 0.03333333333333333 0.03333333333333333 0.03333333333333333 0.03333333333333333 0.03333333333333333 0.03333333333333333 0.03333333333333333 0.03333333333333333 0.03333333333333333 0.03333333333333333 0.03333333333333333 0.03333333333333333 0.03333333333333333 0.03333333333333333 0.03333333333333333 0.03333333333333344</probabilities>
		</cpt>
		<cpt id="safe_distance_to_midpoint_ship0" dynamic="plate">
			<state id="false" />
			<state id="true" />
			<parents>intention_safe_distance_midpoint two_times_distance_to_midpoint_at_cpa_to_ship0</parents>
			<probabilities>0.5 0.5 0 1 0 1 0 1 0 1 0 1 0 1 0 1 0 1 0 1 0 1 0 1 0 1 0 1 0 1 0 1 0 1 0 1 0 1 0 1 0 1 0 1 0 1 0 1 0 1 0 1 0 1 0 1 0 1 0 1 1 0 0.5 0.5 0 1 0 1 0 1 0 1 0 1 0 1 0 1 0 1 0 1 0 1 0 1 0 1 0 1 0 1 0 1 0 1 0 1 0 1 0 1 0 1 0 1 0 1 0 1 0 1 0 1 0 1 0 1 0 1 1 0 1 0 0.5 0.5 0 1 0 1 0 1 0 1 0 1 0 1 0 1 0 1 0 1 0 1 0 1 0 1 0 1 0 1 0 1 0 1 0 1 0 1 0 1 0 1 0 1 0 1 0 1 0 1 0 1 0 1 0 1 1 0 1 0 1 0 0.5 0.5 0 1 0 1 0 1 0 1 0 1 0 1 0 1 0 1 0 1 0 1 0 1 0 1 0 1 0 1 0 1 0 1 0 1 0 1 0 1 0 1 0 1 0 1 0 1 0 1 0 1 0 1 1 0 1 0 1 0 1 0 0.5 0.5 0 1 0 1 0 1 0 1 0 1 0 1 0 1 0 1 0 1 0 1 0 1 0 1 0 1 0 1 0 1 0 1 0 1 0 1 0 1 0 1 0 1 0 1 0 1 0 1 0 1 1 0 1 0 1 0 1 0 1 0 0.5 0.5 0 1 0 1 0 1 0 1 0 1 0 1 0 1 0 1 0 1 0 1 0 1 0 1 0 1 0 1 0 1 0 1 0 1 0 1 0 1 0 1 0 1 0 1 0 1 0 1 1 0 1 0 1 0 1 0 1 0 1 0 0.5 0.5 0 1 0 1 0 1 0 1 0 1 0 1 0 1 0 1 0 1 0 1 0 1 0 1 0 1 0 1 0 1 0 1 0 1 0 1 0 1 0 1 0 1 0 1 0 1 1 0 1 0 1 0 1 0 1 0 1 0 1 0 0.5 0.5 0 1 0 1 0 1 0 1 0 1 0 1 0 1 0 1 0 1 0 1 0 1 0 1 0 1 0 1 0 1 0 1 0 1 0 1 0 1 0 1 0 1 0 1 1 0 1 0 1 0 1 0 1 0 1 0 1 0 1 0 0.5 0.5 0 1 0 1 0 1 0 1 0 1 0 1 0 1 0 1 0 1 0 1 0 1 0 1 0 1 0 1 0 1 0 1 0 1 0 1 0 1 0 1 0 1 1 0 1 0 1 0 1 0 1 0 1 0 1 0 1 0 1 0 0.5 0.5 0 1 0 1 0 1 0 1 0 1 0 1 0 1 0 1 0 1 0 1 0 1 0 1 0 1 0 1 0 1 0 1 0 1 0 1 0 1 0 1 1 0 1 0 1 0 1 0 1 0 1 0 1 0 1 0 1 0 1 0 0.5 0.5 0 1 0 1 0 1 0 1 0 1 0 1 0 1 0 1 0 1 0 1 0 1 0 1 0 1 0 1 0 1 0 1 0 1 0 1 0 1 1 0 1 0 1 0 1 0 1 0 1 0 1 0 1 0 1 0 1 0 1 0 0.5 0.5 0 1 0 1 0 1 0 1 0 1 0 1 0 1 0 1 0 1 0 1 0 1 0 1 0 1 0 1 0 1 0 1 0 1 0 1 1 0 1 0 1 0 1 0 1 0 1 0 1 0 1 0 1 0 1 0 1 0 1 0 0.5 0.5 0 1 0 1 0 1 0 1 0 1 0 1 0 1 0 1 0 1 0 1 0 1 0 1 0 1 0 1 0 1 0 1 0 1 1 0 1 0 1 0 1 0 1 0 1 0 1 0 1 0 1 0 1 0 1 0 1 0 1 0 0.5 0.5 0 1 0 1 0 1 0 1 0 1 0 1 0 1 0 1 0 1 0 1 0 1 0 1 0 1 0 1 0 1 0 1 1 0 1 0 1 0 1 0 1 0 1 0 1 0 1 0 1 0 1 0 1 0 1 0 1 0 1 0 0.5 0.5 0 1 0 1 0 1 0 1 0 1 0 1 0 1 0 1 0 1 0 1 0 1 0 1 0 1 0 1 0 1 1 0 1 0 1 0 1 0 1 0 1 0 1 0 1 0 1 0 1 0 1 0 1 0 1 0 1 0 1 0 0.5 0.5 0 1 0 1 0 1 0 1 0 1 0 1 0 1 0 1 0 1 0 1 0 1 0 1 0 1 0 1 1 0 1 0 1 0 1 0 1 0 1 0 1 0 1 0 1 0 1 0 1 0 1 0 1 0 1 0 1 0 1 0 0.5 0.5 0 1 0 1 0 1 0 1 0 1 0 1 0 1 0 1 0 1 0 1 0 1 0 1 0 1 1 0 1 0 1 0 1 0 1 0 1 0 1 0 1 0 1 0 1 0 1 0 1 0 1 0 1 0 1 0 1 0 1 0 0.5 0.5 0 1 0 1 0 1 0 1 0 1 0 1 0 1 0 1 0 1 0 1 0 1 0 1 1 0 1 0 1 0 1 0 1 0 1 0 1 0 1 0 1 0 1 0 1 0 1 0 1 0 1 0 1 0 1 0 1 0 1 0 0.5 0.5 0 1 0 1 0 1 0 1 0 1 0 1 0 1 0 1 0 1 0 1 0 1 1 0 1 0 1 0 1 0 1 0 1 0 1 0 1 0 1 0 1 0 1 0 1 0 1 0 1 0 1 0 1 0 1 0 1 0 1 0 0.5 0.5 0 1 0 1 0 1 0 1 0 1 0 1 0 1 0 1 0 1 0 1 1 0 1 0 1 0 1 0 1 0 1 0 1 0 1 0 1 0 1 0 1 0 1 0 1 0 1 0 1 0 1 0 1 0 1 0 1 0 1 0 0.5 0.5 0 1 0 1 0 1 0 1 0 1 0 1 0 1 0 1 0 1 1 0 1 0 1 0 1 0 1 0 1 0 1 0 1 0 1 0 1 0 1 0 1 0 1 0 1 0 1 0 1 0 1 0 1 0 1 0 1 0 1 0 0.5 0.5 0 1 0 1 0 1 0 1 0 1 0 1 0 1 0 1 1 0 1 0 1 0 1 0 1 0 1 0 1 0 1 0 1 0 1 0 1 0 1 0 1 0 1 0 1 0 1 0 1 0 1 0 1 0 1 0 1 0 1 0 0.5 0.5 0 1 0 1 0 1 0 1 0 1 0 1 0 1 1 0 1 0 1 0 1 0 1 0 1 0 1 0 1 0 1 0 1 0 1 0 1 0 1 0 1 0 1 0 1 0 1 0 1 0 1 0 1 0 1 0 1 0 1 0 0.5 0.5 0 1 0 1 0 1 0 1 0 1 0 1 1 0 1 0 1 0 1 0 1 0 1 0 1 0 1 0 1 0 1 0 1 0 1 0 1 0 1 0 1 0 1 0 1 0 1 0 1 0 1 0 1 0 1 0 1 0 1 0 0.5 0.5 0 1 0 1 0 1 0 1 0 1 1 0 1 0 1 0 1 0 1 0 1 0 1 0 1 0 1 0 1 0 1 0 1 0 1 0 1 0 1 0 1 0 1 0 1 0 1 0 1 0 1 0 1 0 1 0 1 0 1 0 0.5 0.5 0 1 0 1 0 1 0 1 1 0 1 0 1 0 1 0 1 0 1 0 1 0 1 0 1 0 1 0 1 0 1 0 1 0 1 0 1 0 1 0 1 0 1 0 1 0 1 0 1 0 1 0 1 0 1 0 1 0 1 0 0.5 0.5 0 1 0 1 0 1 1 0 1 0 1 0 1 0 1 0 1 0 1 0 1 0 1 0 1 0 1 0 1 0 1 0 1 0 1 0 1 0 1 0 1 0 1 0 1 0 1 0 1 0 1 0 1 0 1 0 1 0 1 0 0.5 0.5 0 1 0 1 1 0 1 0 1 0 1 0 1 0 1 0 1 0 1 0 1 0 1 0 1 0 1 0 1 0 1 0 1 0 1 0 1 0 1 0 1 0 1 0 1 0 1 0 1 0 1 0 1 0 1 0 1 0 1 0 0.5 0.5 0 1 1 0 1 0 1 0 1 0 1 0 1 0 1 0 1 0 1 0 1 0 1 0 1 0 1 0 1 0 1 0 1 0 1 0 1 0 1 0 1 0 1 0 1 0 1 0 1 0 1 0 1 0 1 0 1 0 1 0 0.5 0.5</probabilities>
		</cpt>
		<cpt id="crossing_with_midpoint_on_side_ship0" dynamic="plate">
			<state id="port" />
			<state id="starboard" />
			<probabilities>0.5 0.5</probabilities>
		</cpt>
		<deterministic id="GW_HO_correct_ship0" dynamic="plate">
			<state id="false" />
			<state id="true" />
			<parents>crossing_with_midpoint_on_side_ship0 safe_distance_to_midpoint_ship0</parents>
			<resultingstates>false true false false</resultingstates>
		</deterministic>
		<cpt id="crossing_with_other_on_port_side_to_ship0" dynamic="plate">
			<state id="port" />
			<state id="starboard" />
			<probabilities>0.5 0.5</probabilities>
		</cpt>
		<deterministic id="GW_CR_SS_correct_ship0" dynamic="plate">
			<state id="false" />
			<state id="true" />
			<parents>safe_distance_to_ship0 crossing_with_other_on_port_side_to_ship0</parents>
			<resultingstates>false false true false</resultingstates>
		</deterministic>
		<deterministic id="GW_OT_ing_correct_ship0" dynamic="plate">
			<state id="false" />
			<state id="true" />
			<parents>safe_distance_to_ship0</parents>
			<resultingstates>false true</resultingstates>
		</deterministic>
		<deterministic id="GW_CR_PS_correct_ship0" dynamic="plate">
			<state id="false" />
			<state id="true" />
			<parents>change_in_course safe_distance_to_ship0</parents>
			<resultingstates>false false false true false true</resultingstates>
		</deterministic>
		<deterministic id="GW_OT_en_correct_ship0" dynamic="plate">
			<state id="false" />
			<state id="true" />
			<parents>safe_distance_to_ship0</parents>
			<resultingstates>false true</resultingstates>
		</deterministic>
		<cpt id="intention_colregs_compliant">
			<state id="false" />
			<state id="true" />
			<probabilities>0.02 0.98</probabilities>
		</cpt>
		<deterministic id="gives_way_correct_towards_ship0" dynamic="plate">
			<state id="false" />
			<state id="true" />
			<parents>colav_situation_towards_ship0 GW_HO_correct_ship0 GW_CR_SS_correct_ship0 GW_OT_ing_correct_ship0 GW_CR_PS_correct_ship0 GW_OT_en_correct_ship0</parents>
			<resultingstates>false false false false false false false false false false false false false false false false true true true true true true true true true true true true true true true true false false false false false false false false true true true true true true true true false false false false false false false false true true true true true true true true false false false false true true true true false false false false true true true true false false false false true true true true false false false false true true true true false false true true false false true true false false true true false false true true false false true true false false true true false false true true false false true true false true false true false true false true false true false true false true false true false true false true false true false true false true false true false true false true</resultingstates>
		</deterministic>
		<cpt id="intention_ample_time">
			<state id="State01" />
			<state id="State02" />
			<state id="State03" />
			<state id="State04" />
			<state id="State05" />
			<state id="State06" />
			<state id="State07" />
			<state id="State08" />
			<state id="State09" />
			<state id="State10" />
			<state id="State11" />
			<state id="State12" />
			<state id="State13" />
			<state id="State14" />
			<state id="State15" />
			<state id="State16" />
			<state id="State17" />
			<state id="State18" />
			<state id="State19" />
			<state id="State20" />
			<state id="State21" />
			<state id="State22" />
			<state id="State23" />
			<state id="State24" />
			<state id="State25" />
			<state id="State26" />
			<state id="State27" />
			<state id="State28" />
			<state id="State29" />
			<state id="State30" />
			<probabilities>8.112116925907537e-08 8.777497752385318e-07 8.148777629986388e-06 6.050970069787371e-05 0.0003594429839244796 0.001708306646889443 0.006496605018001539 0.01977154196927598 0.04815821154247095 0.09388818245423045 0.1465174339766079 0.1830306580593269 0.1830306580593273 0.1465174339766078 0.09388818245423014 0.04815821154247102 0.019771541969276 0.006496605018001533 0.001708306646889479 0.0003594429839244295 6.050970069781947e-05 8.148777630001547e-06 8.777497753076346e-07 7.561288062341021e-08 5.208374953546979e-09 2.86829671125588e-10 1.262689952596929e-11 4.443112544549876e-13 1.243449787580175e-14 3.33066907387547e-16</probabilities>
		</cpt>
		<cpt id="time_untill_closest_point_of_approach_towards_ship0" dynamic="plate">
			<state id="State01" />
			<state id="State02" />
			<state id="State03" />
			<state id="State04" />
			<state id="State05" />
			<state id="State06" />
			<state id="State07" />
			<state id="State08" />
			<state id="State09" />
			<state id="State10" />
			<state id="State11" />
			<state id="State12" />
			<state id="State13" />
			<state id="State14" />
			<state id="State15" />
			<state id="State16" />
			<state id="State17" />
			<state id="State18" />
			<state id="State19" />
			<state id="State20" />
			<state id="State21" />
			<state id="State22" />
			<state id="State23" />
			<state id="State24" />
			<state id="State25" />
			<state id="State26" />
			<state id="State27" />
			<state id="State28" />
			<state id="State29" />
			<state id="State30" />
			<probabilities>0.03333333333333333 0.03333333333333333 0.03333333333333333 0.03333333333333333 0.03333333333333333 0.03333333333333333 0.03333333333333333 0.03333333333333333 0.03333333333333333 0.03333333333333333 0.03333333333333333 0.03333333333333333 0.03333333333333333 0.03333333333333333 0.03333333333333333 0.03333333333333333 0.03333333333333333 0.03333333333333333 0.03333333333333333 0.03333333333333333 0.03333333333333333 0.03333333333333333 0.03333333333333333 0.03333333333333333 0.03333333333333333 0.03333333333333333 0.03333333333333333 0.03333333333333333 0.03333333333333333 0.03333333333333344</probabilities>
		</cpt>
		<cpt id="is_changing_course" dynamic="plate">
			<state id="false" />
			<state id="true" />
			<probabilities>0.5 0.5</probabilities>
		</cpt>
		<cpt id="is_pre_ample_time_to_ship0" dynamic="plate">
			<state id="false" />
			<state id="true" />
			<parents>is_changing_course intention_ample_time time_untill_closest_point_of_approach_towards_ship0</parents>
			<probabilities>0.5 0.5 0 1 0 1 0 1 0 1 0 1 0 1 0 1 0 1 0 1 0 1 0 1 0 1 0 1 0 1 0 1 0 1 0 1 0 1 0 1 0 1 0 1 0 1 0 1 0 1 0 1 0 1 0 1 0 1 0 1 1 0 0.5 0.5 0 1 0 1 0 1 0 1 0 1 0 1 0 1 0 1 0 1 0 1 0 1 0 1 0 1 0 1 0 1 0 1 0 1 0 1 0 1 0 1 0 1 0 1 0 1 0 1 0 1 0 1 0 1 0 1 1 0 1 0 0.5 0.5 0 1 0 1 0 1 0 1 0 1 0 1 0 1 0 1 0 1 0 1 0 1 0 1 0 1 0 1 0 1 0 1 0 1 0 1 0 1 0 1 0 1 0 1 0 1 0 1 0 1 0 1 0 1 1 0 1 0 1 0 0.5 0.5 0 1 0 1 0 1 0 1 0 1 0 1 0 1 0 1 0 1 0 1 0 1 0 1 0 1 0 1 0 1 0 1 0 1 0 1 0 1 0 1 0 1 0 1 0 1 0 1 0 1 0 1 1 0 1 0 1 0 1 0 0.5 0.5 0 1 0 1 0 1 0 1 0 1 0 1 0 1 0 1 0 1 0 1 0 1 0 1 0 1 0 1 0 1 0 1 0 1 0 1 0 1 0 1 0 1 0 1 0 1 0 1 0 1 1 0 1 0 1 0 1 0 1 0 0.5 0.5 0 1 0 1 0 1 0 1 0 1 0 1 0 1 0 1 0 1 0 1 0 1 0 1 0 1 0 1 0 1 0 1 0 1 0 1 0 1 0 1 0 1 0 1 0 1 0 1 1 0 1 0 1 0 1 0 1 0 1 0 0.5 0.5 0 1 0 1 0 1 0 1 0 1 0 1 0 1 0 1 0 1 0 1 0 1 0 1 0 1 0 1 0 1 0 1 0 1 0 1 0 1 0 1 0 1 0 1 0 1 1 0 1 0 1 0 1 0 1 0 1 0 1 0 0.5 0.5 0 1 0 1 0 1 0 1 0 1 0 1 0 1 0 1 0 1 0 1 0 1 0 1 0 1 0 1 0 1 0 1 0 1 0 1 0 1 0 1 0 1 0 1 1 0 1 0 1 0 1 0 1 0 1 0 1 0 1 0 0.5 0.5 0 1 0 1 0 1 0 1 0 1 0 1 0 1 0 1 0 1 0 1 0 1 0 1 0 1 0 1 0 1 0 1 0 1 0 1 0 1 0 1 0 1 1 0 1 0 1 0 1 0 1 0 1 0 1 0 1 0 1 0 0.5 0.5 0 1 0 1 0 1 0 1 0 1 0 1 0 1 0 1 0 1 0 1 0 1 0 1 0 1 0 1 0 1 0 1 0 1 0 1 0 1 0 1 1 0 1 0 1 0 1 0 1 0 1 0 1 0 1 0 1 0 1 0 0.5 0.5 0 1 0 1 0 1 0 1 0 1 0 1 0 1 0 1 0 1 0 1 0 1 0 1 0 1 0 1 0 1 0 1 0 1 0 1 0 1 1 0 1 0 1 0 1 0 1 0 1 0 1 0 1 0 1 0 1 0 1 0 0.5 0.5 0 1 0 1 0 1 0 1 0 1 0 1 0 1 0 1 0 1 0 1 0 1 0 1 0 1 0 1 0 1 0 1 0 1 0 1 1 0 1 0 1 0 1 0 1 0 1 0 1 0 1 0 1 0 1 0 1 0 1 0 0.5 0.5 0 1 0 1 0 1 0 1 0 1 0 1 0 1 0 1 0 1 0 1 0 1 0 1 0 1 0 1 0 1 0 1 0 1 1 0 1 0 1 0 1 0 1 0 1 0 1 0 1 0 1 0 1 0 1 0 1 0 1 0 0.5 0.5 0 1 0 1 0 1 0 1 0 1 0 1 0 1 0 1 0 1 0 1 0 1 0 1 0 1 0 1 0 1 0 1 1 0 1 0 1 0 1 0 1 0 1 0 1 0 1 0 1 0 1 0 1 0 1 0 1 0 1 0 0.5 0.5 0 1 0 1 0 1 0 1 0 1 0 1 0 1 0 1 0 1 0 1 0 1 0 1 0 1 0 1 0 1 1 0 1 0 1 0 1 0 1 0 1 0 1 0 1 0 1 0 1 0 1 0 1 0 1 0 1 0 1 0 0.5 0.5 0 1 0 1 0 1 0 1 0 1 0 1 0 1 0 1 0 1 0 1 0 1 0 1 0 1 0 1 1 0 1 0 1 0 1 0 1 0 1 0 1 0 1 0 1 0 1 0 1 0 1 0 1 0 1 0 1 0 1 0 0.5 0.5 0 1 0 1 0 1 0 1 0 1 0 1 0 1 0 1 0 1 0 1 0 1 0 1 0 1 1 0 1 0 1 0 1 0 1 0 1 0 1 0 1 0 1 0 1 0 1 0 1 0 1 0 1 0 1 0 1 0 1 0 0.5 0.5 0 1 0 1 0 1 0 1 0 1 0 1 0 1 0 1 0 1 0 1 0 1 0 1 1 0 1 0 1 0 1 0 1 0 1 0 1 0 1 0 1 0 1 0 1 0 1 0 1 0 1 0 1 0 1 0 1 0 1 0 0.5 0.5 0 1 0 1 0 1 0 1 0 1 0 1 0 1 0 1 0 1 0 1 0 1 1 0 1 0 1 0 1 0 1 0 1 0 1 0 1 0 1 0 1 0 1 0 1 0 1 0 1 0 1 0 1 0 1 0 1 0 1 0 0.5 0.5 0 1 0 1 0 1 0 1 0 1 0 1 0 1 0 1 0 1 0 1 1 0 1 0 1 0 1 0 1 0 1 0 1 0 1 0 1 0 1 0 1 0 1 0 1 0 1 0 1 0 1 0 1 0 1 0 1 0 1 0 0.5 0.5 0 1 0 1 0 1 0 1 0 1 0 1 0 1 0 1 0 1 1 0 1 0 1 0 1 0 1 0 1 0 1 0 1 0 1 0 1 0 1 0 1 0 1 0 1 0 1 0 1 0 1 0 1 0 1 0 1 0 1 0 0.5 0.5 0 1 0 1 0 1 0 1 0 1 0 1 0 1 0 1 1 0 1 0 1 0 1 0 1 0 1 0 1 0 1 0 1 0 1 0 1 0 1 0 1 0 1 0 1 0 1 0 1 0 1 0 1 0 1 0 1 0 1 0 0.5 0.5 0 1 0 1 0 1 0 1 0 1 0 1 0 1 1 0 1 0 1 0 1 0 1 0 1 0 1 0 1 0 1 0 1 0 1 0 1 0 1 0 1 0 1 0 1 0 1 0 1 0 1 0 1 0 1 0 1 0 1 0 0.5 0.5 0 1 0 1 0 1 0 1 0 1 0 1 1 0 1 0 1 0 1 0 1 0 1 0 1 0 1 0 1 0 1 0 1 0 1 0 1 0 1 0 1 0 1 0 1 0 1 0 1 0 1 0 1 0 1 0 1 0 1 0 0.5 0.5 0 1 0 1 0 1 0 1 0 1 1 0 1 0 1 0 1 0 1 0 1 0 1 0 1 0 1 0 1 0 1 0 1 0 1 0 1 0 1 0 1 0 1 0 1 0 1 0 1 0 1 0 1 0 1 0 1 0 1 0 0.5 0.5 0 1 0 1 0 1 0 1 1 0 1 0 1 0 1 0 1 0 1 0 1 0 1 0 1 0 1 0 1 0 1 0 1 0 1 0 1 0 1 0 1 0 1 0 1 0 1 0 1 0 1 0 1 0 1 0 1 0 1 0 0.5 0.5 0 1 0 1 0 1 1 0 1 0 1 0 1 0 1 0 1 0 1 0 1 0 1 0 1 0 1 0 1 0 1 0 1 0 1 0 1 0 1 0 1 0 1 0 1 0 1 0 1 0 1 0 1 0 1 0 1 0 1 0 0.5 0.5 0 1 0 1 1 0 1 0 1 0 1 0 1 0 1 0 1 0 1 0 1 0 1 0 1 0 1 0 1 0 1 0 1 0 1 0 1 0 1 0 1 0 1 0 1 0 1 0 1 0 1 0 1 0 1 0 1 0 1 0 0.5 0.5 0 1 1 0 1 0 1 0 1 0 1 0 1 0 1 0 1 0 1 0 1 0 1 0 1 0 1 0 1 0 1 0 1 0 1 0 1 0 1 0 1 0 1 0 1 0 1 0 1 0 1 0 1 0 1 0 1 0 1 0 0.5 0.5 0 1 0 1 0 1 0 1 0 1 0 1 0 1 0 1 0 1 0 1 0 1 0 1 0 1 0 1 0 1 0 1 0 1 0 1 0 1 0 1 0 1 0 1 0 1 0 1 0 1 0 1 0 1 0 1 0 1 0 1 0 1 0 1 0 1 0 1 0 1 0 1 0 1 0 1 0 1 0 1 0 1 0 1 0 1 0 1 0 1 0 1 0 1 0 1 0 1 0 1 0 1 0 1 0 1 0 1 0 1 0 1 0 1 0 1 0 1 0 1 0 1 0 1 0 1 0 1 0 1 0 1 0 1 0 1 0 1 0 1 0 1 0 1 0 1 0 1 0 1 0 1 0 1 0 1 0 1 0 1 0 1 0 1 0 1 0 1 0 1 0 1 0 1 0 1 0 1 0 1 0 1 0 1 0 1 0 1 0 1 0 1 0 1 0 1 0 1 0 1 0 1 0 1 0 1 0 1 0 1 0 1 0 1 0 1 0 1 0 1 0 1 0 1 0 1 0 1 0 1 0 1 0 1 0 1 0 1 0 1 0 1 0 1 0 1 0 1 0 1 0 1 0 1 0 1 0 1 0 1 0 1 0 1 0 1 0 1 0 1 0 1 0 1 0 1 0 1 0 1 0 1 0 1 0 1 0 1 0 1 0 1 0 1 0 1 0 1 0 1 0 1 0 1 0 1 0 1 0 1 0 1 0 1 0 1 0 1 0 1 0 1 0 1 0 1 0 1 0 1 0 1 0 1 0 1 0 1 0 1 0 1 0 1 0 1 0 1 0 1 0 1 0 1 0 1 0 1 0 1 0 1 0 1 0 1 0 1 0 1 0 1 0 1 0 1 0 1 0 1 0 1 0 1 0 1 0 1 0 1 0 1 0 1 0 1 0 1 0 1 0 1 0 1 0 1 0 1 0 1 0 1 0 1 0 1 0 1 0 1 0 1 0 1 0 1 0 1 0 1 0 1 0 1 0 1 0 1 0 1 0 1 0 1 0 1 0 1 0 1 0 1 0 1 0 1 0 1 0 1 0 1 0 1 0 1 0 1 0 1 0 1 0 1 0 1 0 1 0 1 0 1 0 1 0 1 0 1 0 1 0 1 0 1 0 1 0 1 0 1 0 1 0 1 0 1 0 1 0 1 0 1 0 1 0 1 0 1 0 1 0 1 0 1 0 1 0 1 0 1 0 1 0 1 0 1 0 1 0 1 0 1 0 1 0 1 0 1 0 1 0 1 0 1 0 1 0 1 0 1 0 1 0 1 0 1 0 1 0 1 0 1 0 1 0 1 0 1 0 1 0 1 0 1 0 1 0 1 0 1 0 1 0 1 0 1 0 1 0 1 0 1 0 1 0 1 0 1 0 1 0 1 0 1 0 1 0 1 0 1 0 1 0 1 0 1 0 1 0 1 0 1 0 1 0 1 0 1 0 1 0 1 0 1 0 1 0 1 0 1 0 1 0 1 0 1 0 1 0 1 0 1 0 1 0 1 0 1 0 1 0 1 0 1 0 1 0 1 0 1 0 1 0 1 0 1 0 1 0 1 0 1 0 1 0 1 0 1 0 1 0 1 0 1 0 1 0 1 0 1 0 1 0 1 0 1 0 1 0 1 0 1 0 1 0 1 0 1 0 1 0 1 0 1 0 1 0 1 0 1 0 1 0 1 0 1 0 1 0 1 0 1 0 1 0 1 0 1 0 1 0 1 0 1 0 1 0 1 0 1 0 1 0 1 0 1 0 1 0 1 0 1 0 1 0 1 0 1 0 1 0 1 0 1 0 1 0 1 0 1 0 1 0 1 0 1 0 1 0 1 0 1 0 1 0 1 0 1 0 1 0 1 0 1 0 1 0 1 0 1 0 1 0 1 0 1 0 1 0 1 0 1 0 1 0 1 0 1 0 1 0 1 0 1 0 1 0 1 0 1 0 1 0 1 0 1 0 1 0 1 0 1 0 1 0 1 0 1 0 1 0 1 0 1 0 1 0 1 0 1 0 1 0 1 0 1 0 1 0 1 0 1 0 1 0 1 0 1 0 1 0 1 0 1 0 1 0 1 0 1 0 1 0 1 0 1 0 1 0 1 0 1 0 1 0 1 0 1 0 1 0 1 0 1 0 1 0 1 0 1 0 1 0 1 0 1 0 1 0 1 0 1 0 1 0 1 0 1 0 1 0 1 0 1 0 1 0 1 0 1 0 1 0 1 0 1 0 1 0 1 0 1 0 1 0 1 0 1 0 1 0 1 0 1 0 1 0 1 0 1 0 1 0 1 0 1 0 1 0 1 0 1 0 1 0 1 0 1 0 1 0 1 0 1 0 1 0 1 0 1 0 1 0 1 0 1 0 1 0 1 0 1 0 1 0 1 0 1 0 1 0 1 0 1 0 1 0 1 0 1 0 1 0 1 0 1 0 1 0 1 0 1 0 1 0 1 0 1 0 1 0 1 0 1 0 1 0 1 0 1 0 1 0 1 0 1 0 1 0 1 0 1 0 1 0 1 0 1 0 1 0 1 0 1 0 1 0 1 0 1 0 1 0 1 0 1 0 1 0 1 0 1 0 1 0 1 0 1 0 1 0 1 0 1 0 1 0 1 0 1 0 1 0 1 0 1 0 1 0 1 0 1 0 1 0 1 0 1 0 1 0 1 0 1 0 1 0 1 0 1 0 1 0 1 0 1 0 1 0 1 0 1 0 1 0 1 0 1 0 1 0 1 0 1 0 1 0 1 0 1 0 1 0 1 0 1 0 1 0 1 0 1 0 1 0 1 0 1 0 1 0 1 0 1 0 1 0 1 0 1 0 1 0 1 0 1 0 1 0 1 0 1 0 1 0 1 0 1 0 1 0 1 0 1 0 1 0 1 0 1 0 1 0 1 0 1 0 1 0 1 0 1 0 1 0 1 0 1 0 1 0 1 0 1 0 1 0 1 0 1 0 1 0 1 0 1 0 1 0 1 0 1 0 1 0 1 0 1 0 1 0 1 0 1 0 1 0 1 0 1 0 1 0 1 0 1 0 1 0 1 0 1 0 1 0 1 0 1 0 1 0 1 0 1 0 1 0 1 0 1 0 1 0 1 0 1 0 1 0 1 0 1 0 1 0 1 0 1 0 1 0 1 0 1 0 1 0 1 0 1 0 1 0 1 0 1 0 1 0 1 0 1 0 1 0 1 0 1 0 1 0 1 0 1 0 1 0 1 0 1 0 1 0 1 0 1 0 1 0 1 0 1 0 1 0 1 0 1 0 1 0 1 0 1 0 1 0 1 0 1 0 1 0 1 0 1 0 1 0 1 0 1 0 1 0 1 0 1 0 1 0 1 0 1 0 1 0 1 0 1 0 1 0 1 0 1 0 1 0 1 0 1 0 1 0 1 0 1 0 1 0 1 0 1 0 1 0 1 0 1 0 1 0 1 0 1 0 1 0 1 0 1 0 1 0 1 0 1 0 1 0 1 0 1 0 1 0 1 0 1 0 1 0 1 0 1 0 1 0 1 0 1 0 1 0 1 0 1 0 1 0 1 0 1 0 1 0 1 0 1 0 1 0 1 0 1 0 1 0 1 0 1 0 1 0 1 0 1 0 1 0 1 0 1 0 1 0 1 0 1 0 1 0 1 0 1 0 1 0 1 0 1 0 1 0 1 0 1 0 1 0 1 0 1 0 1 0 1 0 1 0 1 0 1 0 1 0 1 0 1 0 1 0 1 0 1 0 1 0 1 0 1 0 1 0 1 0 1 0 1 0 1 0 1 0 1 0 1 0 1 0 1 0 1 0 1 0 1 0 1 0 1 0 1 0 1 0 1 0 1 0 1 0 1 0 1 0 1 0 1 0 1 0 1 0 1 0 1 0 1 0 1 0 1 0 1 0 1 0 1 0 1 0 1 0 1 0 1 0 1 0 1 0 1 0 1 0 1 0 1 0 1 0 1 0 1 0 1 0 1 0 1 0 1 0 1 0 1 0 1 0 1 0 1 0 1 0 1 0 1 0 1 0 1 0 1 0 1 0 1 0 1 0 1 0 1 0 1 0 1</probabilities>
		</cpt>
		<cpt id="intention_good_seamanship">
			<state id="false" />
			<state id="true" />
			<probabilities>0.01 0.99</probabilities>
		</cpt>
		<deterministic id="has_turned_portwards" dynamic="plate">
			<state id="false" />
			<state id="true" />
			<parents>change_in_course</parents>
			<resultingstates>true false false</resultingstates>
		</deterministic>
		<deterministic id="has_turned_starboardwards" dynamic="plate">
			<state id="false" />
			<state id="true" />
			<parents>change_in_course</parents>
			<resultingstates>false false true</resultingstates>
		</deterministic>
		<deterministic id="good_seamanship_to_ship0" dynamic="plate">
			<state id="false" />
			<state id="true" />
			<parents>intention_good_seamanship has_turned_portwards has_turned_starboardwards crossing_with_other_on_port_side_to_ship0</parents>
			<resultingstates>true true true true true true true true true true true false false true false false</resultingstates>
		</deterministic>
		<deterministic id="GWC_or_pre_ample_time_towards_ship0" dynamic="plate">
			<state id="false" />
			<state id="true" />
			<parents>is_pre_ample_time_to_ship0 gives_way_correct_towards_ship0</parents>
			<resultingstates>false true true true</resultingstates>
		</deterministic>
		<deterministic id="Observation_consistent_wrt_colregs_towards_ship0" dynamic="plate">
			<state id="false" />
			<state id="true" />
			<parents>intention_colregs_compliant good_seamanship_to_ship0 role_towards_ship0 GWC_or_pre_ample_time_towards_ship0 stands_on_correctly_or_forced_to_give_way</parents>
			<resultingstates>true true true true true true true true true true true true true true true true false false false false false false false false false false true true false true false true</resultingstates>
		</deterministic>
		<cpt id="disable_ship0" dynamic="plate">
			<state id="disabled" />
			<state id="enabled" />
			<probabilities>0.5 0.5</probabilities>
		</cpt>
		<cpt id="lowres_distance_at_cpa_to_ship0" dynamic="plate">
			<state id="State01" />
			<state id="State02" />
			<state id="State03" />
			<state id="State04" />
			<state id="State05" />
			<state id="State06" />
			<state id="State07" />
			<state id="State08" />
			<state id="State09" />
			<state id="State10" />
			<state id="State11" />
			<state id="State12" />
			<state id="State13" />
			<state id="State14" />
			<state id="State15" />
			<state id="State16" />
			<state id="State17" />
			<state id="State18" />
			<state id="State19" />
			<state id="State20" />
			<state id="State21" />
			<state id="State22" />
			<state id="State23" />
			<state id="State24" />
			<state id="State25" />
			<state id="State26" />
			<state id="State27" />
			<state id="State28" />
			<state id="State29" />
			<state id="State30" />
			<probabilities>0.03333333333333333 0.03333333333333333 0.03333333333333333 0.03333333333333333 0.03333333333333333 0.03333333333333333 0.03333333333333333 0.03333333333333333 0.03333333333333333 0.03333333333333333 0.03333333333333333 0.03333333333333333 0.03333333333333333 0.03333333333333333 0.03333333333333333 0.03333333333333333 0.03333333333333333 0.03333333333333333 0.03333333333333333 0.03333333333333333 0.03333333333333333 0.03333333333333333 0.03333333333333333 0.03333333333333333 0.03333333333333333 0.03333333333333333 0.03333333333333333 0.03333333333333333 0.03333333333333333 0.03333333333333344</probabilities>
		</cpt>
		<cpt id="intention_distance_risk_of_collision">
			<state id="State1" />
			<state id="State2" />
			<state id="State3" />
			<state id="State4" />
			<state id="State5" />
			<state id="State6" />
			<state id="State7" />
			<state id="State8" />
			<state id="State9" />
			<state id="State10" />
			<state id="State11" />
			<state id="State12" />
			<state id="State13" />
			<state id="State14" />
			<state id="State15" />
			<state id="State16" />
			<state id="State17" />
			<state id="State18" />
			<state id="State19" />
			<state id="State20" />
			<state id="State21" />
			<state id="State22" />
			<state id="State23" />
			<state id="State24" />
			<state id="State25" />
			<state id="State26" />
			<state id="State27" />
			<state id="State28" />
			<state id="State29" />
			<state id="State30" />
			<probabilities>9.99960001599936e-06 9.99960001599936e-06 9.99960001599936e-06 9.99960001599936e-06 9.99960001599936e-06 9.99960001599936e-06 6.999720011199552e-05 0.0001999920003199872 0.0005499780008799648 0.001119955201791928 0.002929882804687812 0.005989760409583616 0.01139954401823927 0.01999920003199872 0.03305867765289389 0.04983800647974081 0.06948722051117956 0.08688652453901843 0.1024759009639614 0.1126054957801688 0.1139954401823927 0.1057757689692412 0.08730650773969041 0.06911723531058758 0.05041798328066877 0.03344866205351786 0.0203091876324947 0.01183952641894324 0.006299748010079597 0.004819807207711691</probabilities>
		</cpt>
		<cpt id="current_risk_of_collision_CPA_towards_ship0" dynamic="plate">
			<state id="false" />
			<state id="true" />
			<parents>lowres_distance_at_cpa_to_ship0 intention_distance_risk_of_collision</parents>
			<probabilities>0.5 0.5 0 1 0 1 0 1 0 1 0 1 0 1 0 1 0 1 0 1 0 1 0 1 0 1 0 1 0 1 0 1 0 1 0 1 0 1 0 1 0 1 0 1 0 1 0 1 0 1 0 1 0 1 0 1 0 1 0 1 1 0 0.5 0.5 0 1 0 1 0 1 0 1 0 1 0 1 0 1 0 1 0 1 0 1 0 1 0 1 0 1 0 1 0 1 0 1 0 1 0 1 0 1 0 1 0 1 0 1 0 1 0 1 0 1 0 1 0 1 0 1 1 0 1 0 0.5 0.5 0 1 0 1 0 1 0 1 0 1 0 1 0 1 0 1 0 1 0 1 0 1 0 1 0 1 0 1 0 1 0 1 0 1 0 1 0 1 0 1 0 1 0 1 0 1 0 1 0 1 0 1 0 1 1 0 1 0 1 0 0.5 0.5 0 1 0 1 0 1 0 1 0 1 0 1 0 1 0 1 0 1 0 1 0 1 0 1 0 1 0 1 0 1 0 1 0 1 0 1 0 1 0 1 0 1 0 1 0 1 0 1 0 1 0 1 1 0 1 0 1 0 1 0 0.5 0.5 0 1 0 1 0 1 0 1 0 1 0 1 0 1 0 1 0 1 0 1 0 1 0 1 0 1 0 1 0 1 0 1 0 1 0 1 0 1 0 1 0 1 0 1 0 1 0 1 0 1 1 0 1 0 1 0 1 0 1 0 0.5 0.5 0 1 0 1 0 1 0 1 0 1 0 1 0 1 0 1 0 1 0 1 0 1 0 1 0 1 0 1 0 1 0 1 0 1 0 1 0 1 0 1 0 1 0 1 0 1 0 1 1 0 1 0 1 0 1 0 1 0 1 0 0.5 0.5 0 1 0 1 0 1 0 1 0 1 0 1 0 1 0 1 0 1 0 1 0 1 0 1 0 1 0 1 0 1 0 1 0 1 0 1 0 1 0 1 0 1 0 1 0 1 1 0 1 0 1 0 1 0 1 0 1 0 1 0 0.5 0.5 0 1 0 1 0 1 0 1 0 1 0 1 0 1 0 1 0 1 0 1 0 1 0 1 0 1 0 1 0 1 0 1 0 1 0 1 0 1 0 1 0 1 0 1 1 0 1 0 1 0 1 0 1 0 1 0 1 0 1 0 0.5 0.5 0 1 0 1 0 1 0 1 0 1 0 1 0 1 0 1 0 1 0 1 0 1 0 1 0 1 0 1 0 1 0 1 0 1 0 1 0 1 0 1 0 1 1 0 1 0 1 0 1 0 1 0 1 0 1 0 1 0 1 0 0.5 0.5 0 1 0 1 0 1 0 1 0 1 0 1 0 1 0 1 0 1 0 1 0 1 0 1 0 1 0 1 0 1 0 1 0 1 0 1 0 1 0 1 1 0 1 0 1 0 1 0 1 0 1 0 1 0 1 0 1 0 1 0 0.5 0.5 0 1 0 1 0 1 0 1 0 1 0 1 0 1 0 1 0 1 0 1 0 1 0 1 0 1 0 1 0 1 0 1 0 1 0 1 0 1 1 0 1 0 1 0 1 0 1 0 1 0 1 0 1 0 1 0 1 0 1 0 0.5 0.5 0 1 0 1 0 1 0 1 0 1 0 1 0 1 0 1 0 1 0 1 0 1 0 1 0 1 0 1 0 1 0 1 0 1 0 1 1 0 1 0 1 0 1 0 1 0 1 0 1 0 1 0 1 0 1 0 1 0 1 0 0.5 0.5 0 1 0 1 0 1 0 1 0 1 0 1 0 1 0 1 0 1 0 1 0 1 0 1 0 1 0 1 0 1 0 1 0 1 1 0 1 0 1 0 1 0 1 0 1 0 1 0 1 0 1 0 1 0 1 0 1 0 1 0 0.5 0.5 0 1 0 1 0 1 0 1 0 1 0 1 0 1 0 1 0 1 0 1 0 1 0 1 0 1 0 1 0 1 0 1 1 0 1 0 1 0 1 0 1 0 1 0 1 0 1 0 1 0 1 0 1 0 1 0 1 0 1 0 0.5 0.5 0 1 0 1 0 1 0 1 0 1 0 1 0 1 0 1 0 1 0 1 0 1 0 1 0 1 0 1 0 1 1 0 1 0 1 0 1 0 1 0 1 0 1 0 1 0 1 0 1 0 1 0 1 0 1 0 1 0 1 0 0.5 0.5 0 1 0 1 0 1 0 1 0 1 0 1 0 1 0 1 0 1 0 1 0 1 0 1 0 1 0 1 1 0 1 0 1 0 1 0 1 0 1 0 1 0 1 0 1 0 1 0 1 0 1 0 1 0 1 0 1 0 1 0 0.5 0.5 0 1 0 1 0 1 0 1 0 1 0 1 0 1 0 1 0 1 0 1 0 1 0 1 0 1 1 0 1 0 1 0 1 0 1 0 1 0 1 0 1 0 1 0 1 0 1 0 1 0 1 0 1 0 1 0 1 0 1 0 0.5 0.5 0 1 0 1 0 1 0 1 0 1 0 1 0 1 0 1 0 1 0 1 0 1 0 1 1 0 1 0 1 0 1 0 1 0 1 0 1 0 1 0 1 0 1 0 1 0 1 0 1 0 1 0 1 0 1 0 1 0 1 0 0.5 0.5 0 1 0 1 0 1 0 1 0 1 0 1 0 1 0 1 0 1 0 1 0 1 1 0 1 0 1 0 1 0 1 0 1 0 1 0 1 0 1 0 1 0 1 0 1 0 1 0 1 0 1 0 1 0 1 0 1 0 1 0 0.5 0.5 0 1 0 1 0 1 0 1 0 1 0 1 0 1 0 1 0 1 0 1 1 0 1 0 1 0 1 0 1 0 1 0 1 0 1 0 1 0 1 0 1 0 1 0 1 0 1 0 1 0 1 0 1 0 1 0 1 0 1 0 0.5 0.5 0 1 0 1 0 1 0 1 0 1 0 1 0 1 0 1 0 1 1 0 1 0 1 0 1 0 1 0 1 0 1 0 1 0 1 0 1 0 1 0 1 0 1 0 1 0 1 0 1 0 1 0 1 0 1 0 1 0 1 0 0.5 0.5 0 1 0 1 0 1 0 1 0 1 0 1 0 1 0 1 1 0 1 0 1 0 1 0 1 0 1 0 1 0 1 0 1 0 1 0 1 0 1 0 1 0 1 0 1 0 1 0 1 0 1 0 1 0 1 0 1 0 1 0 0.5 0.5 0 1 0 1 0 1 0 1 0 1 0 1 0 1 1 0 1 0 1 0 1 0 1 0 1 0 1 0 1 0 1 0 1 0 1 0 1 0 1 0 1 0 1 0 1 0 1 0 1 0 1 0 1 0 1 0 1 0 1 0 0.5 0.5 0 1 0 1 0 1 0 1 0 1 0 1 1 0 1 0 1 0 1 0 1 0 1 0 1 0 1 0 1 0 1 0 1 0 1 0 1 0 1 0 1 0 1 0 1 0 1 0 1 0 1 0 1 0 1 0 1 0 1 0 0.5 0.5 0 1 0 1 0 1 0 1 0 1 1 0 1 0 1 0 1 0 1 0 1 0 1 0 1 0 1 0 1 0 1 0 1 0 1 0 1 0 1 0 1 0 1 0 1 0 1 0 1 0 1 0 1 0 1 0 1 0 1 0 0.5 0.5 0 1 0 1 0 1 0 1 1 0 1 0 1 0 1 0 1 0 1 0 1 0 1 0 1 0 1 0 1 0 1 0 1 0 1 0 1 0 1 0 1 0 1 0 1 0 1 0 1 0 1 0 1 0 1 0 1 0 1 0 0.5 0.5 0 1 0 1 0 1 1 0 1 0 1 0 1 0 1 0 1 0 1 0 1 0 1 0 1 0 1 0 1 0 1 0 1 0 1 0 1 0 1 0 1 0 1 0 1 0 1 0 1 0 1 0 1 0 1 0 1 0 1 0 0.5 0.5 0 1 0 1 1 0 1 0 1 0 1 0 1 0 1 0 1 0 1 0 1 0 1 0 1 0 1 0 1 0 1 0 1 0 1 0 1 0 1 0 1 0 1 0 1 0 1 0 1 0 1 0 1 0 1 0 1 0 1 0 0.5 0.5 0 1 1 0 1 0 1 0 1 0 1 0 1 0 1 0 1 0 1 0 1 0 1 0 1 0 1 0 1 0 1 0 1 0 1 0 1 0 1 0 1 0 1 0 1 0 1 0 1 0 1 0 1 0 1 0 1 0 1 0 0.5 0.5</probabilities>
		</cpt>
		<cpt id="lowres_crossing_distance_front_towards_ship0" dynamic="plate">
			<state id="State01" />
			<state id="State02" />
			<state id="State03" />
			<state id="State04" />
			<state id="State05" />
			<state id="State06" />
			<state id="State07" />
			<state id="State08" />
			<state id="State09" />
			<state id="State10" />
			<state id="State11" />
			<state id="State12" />
			<state id="State13" />
			<state id="State14" />
			<state id="State15" />
			<state id="State16" />
			<state id="State17" />
			<state id="State18" />
			<state id="State19" />
			<state id="State20" />
			<state id="State21" />
			<state id="State22" />
			<state id="State23" />
			<state id="State24" />
			<state id="State25" />
			<state id="State26" />
			<state id="State27" />
			<state id="State28" />
			<state id="State29" />
			<state id="State30" />
			<probabilities>0.03333333333333333 0.03333333333333333 0.03333333333333333 0.03333333333333333 0.03333333333333333 0.03333333333333333 0.03333333333333333 0.03333333333333333 0.03333333333333333 0.03333333333333333 0.03333333333333333 0.03333333333333333 0.03333333333333333 0.03333333333333333 0.03333333333333333 0.03333333333333333 0.03333333333333333 0.03333333333333333 0.03333333333333333 0.03333333333333333 0.03333333333333333 0.03333333333333333 0.03333333333333333 0.03333333333333333 0.03333333333333333 0.03333333333333333 0.03333333333333333 0.03333333333333333 0.03333333333333333 0.03333333333333344</probabilities>
		</cpt>
		<cpt id="intention_distance_risk_of_collision_front">
			<state id="State1" />
			<state id="State2" />
			<state id="State3" />
			<state id="State4" />
			<state id="State5" />
			<state id="State6" />
			<state id="State7" />
			<state id="State8" />
			<state id="State9" />
			<state id="State10" />
			<state id="State11" />
			<state id="State12" />
			<state id="State13" />
			<state id="State14" />
			<state id="State15" />
			<state id="State16" />
			<state id="State17" />
			<state id="State18" />
			<state id="State19" />
			<state id="State20" />
			<state id="State21" />
			<state id="State22" />
			<state id="State23" />
			<state id="State24" />
			<state id="State25" />
			<state id="State26" />
			<state id="State27" />
			<state id="State28" />
			<state id="State29" />
			<state id="State30" />
			<probabilities>9.999500024998751e-06 9.999500024998751e-06 9.999500024998751e-06 9.999500024998751e-06 9.999500024998751e-06 9.999500024998751e-06 5.99970001499925e-05 8.999550022498874e-05 0.00039998000099995 0.0008099595020248987 0.002109894505274736 0.004539773011349432 0.01050947452627369 0.01790910454477276 0.03172841357932103 0.04843757812109394 0.06893655317234139 0.08970551472426379 0.1085145742712864 0.1171141442927854 0.1171641417929103 0.1091745412729364 0.08890555472226389 0.06731663416829159 0.04913754312284386 0.03140842957852107 0.01765911704414779 0.01000949952502375 0.004629768511574421 0.003669816509174541</probabilities>
		</cpt>
		<cpt id="current_risk_of_collision_front_towards_ship0" dynamic="plate">
			<state id="false" />
			<state id="true" />
			<parents>lowres_crossing_distance_front_towards_ship0 intention_distance_risk_of_collision_front</parents>
			<probabilities>0.5 0.5 0 1 0 1 0 1 0 1 0 1 0 1 0 1 0 1 0 1 0 1 0 1 0 1 0 1 0 1 0 1 0 1 0 1 0 1 0 1 0 1 0 1 0 1 0 1 0 1 0 1 0 1 0 1 0 1 0 1 1 0 0.5 0.5 0 1 0 1 0 1 0 1 0 1 0 1 0 1 0 1 0 1 0 1 0 1 0 1 0 1 0 1 0 1 0 1 0 1 0 1 0 1 0 1 0 1 0 1 0 1 0 1 0 1 0 1 0 1 0 1 1 0 1 0 0.5 0.5 0 1 0 1 0 1 0 1 0 1 0 1 0 1 0 1 0 1 0 1 0 1 0 1 0 1 0 1 0 1 0 1 0 1 0 1 0 1 0 1 0 1 0 1 0 1 0 1 0 1 0 1 0 1 1 0 1 0 1 0 0.5 0.5 0 1 0 1 0 1 0 1 0 1 0 1 0 1 0 1 0 1 0 1 0 1 0 1 0 1 0 1 0 1 0 1 0 1 0 1 0 1 0 1 0 1 0 1 0 1 0 1 0 1 0 1 1 0 1 0 1 0 1 0 0.5 0.5 0 1 0 1 0 1 0 1 0 1 0 1 0 1 0 1 0 1 0 1 0 1 0 1 0 1 0 1 0 1 0 1 0 1 0 1 0 1 0 1 0 1 0 1 0 1 0 1 0 1 1 0 1 0 1 0 1 0 1 0 0.5 0.5 0 1 0 1 0 1 0 1 0 1 0 1 0 1 0 1 0 1 0 1 0 1 0 1 0 1 0 1 0 1 0 1 0 1 0 1 0 1 0 1 0 1 0 1 0 1 0 1 1 0 1 0 1 0 1 0 1 0 1 0 0.5 0.5 0 1 0 1 0 1 0 1 0 1 0 1 0 1 0 1 0 1 0 1 0 1 0 1 0 1 0 1 0 1 0 1 0 1 0 1 0 1 0 1 0 1 0 1 0 1 1 0 1 0 1 0 1 0 1 0 1 0 1 0 0.5 0.5 0 1 0 1 0 1 0 1 0 1 0 1 0 1 0 1 0 1 0 1 0 1 0 1 0 1 0 1 0 1 0 1 0 1 0 1 0 1 0 1 0 1 0 1 1 0 1 0 1 0 1 0 1 0 1 0 1 0 1 0 0.5 0.5 0 1 0 1 0 1 0 1 0 1 0 1 0 1 0 1 0 1 0 1 0 1 0 1 0 1 0 1 0 1 0 1 0 1 0 1 0 1 0 1 0 1 1 0 1 0 1 0 1 0 1 0 1 0 1 0 1 0 1 0 0.5 0.5 0 1 0 1 0 1 0 1 0 1 0 1 0 1 0 1 0 1 0 1 0 1 0 1 0 1 0 1 0 1 0 1 0 1 0 1 0 1 0 1 1 0 1 0 1 0 1 0 1 0 1 0 1 0 1 0 1 0 1 0 0.5 0.5 0 1 0 1 0 1 0 1 0 1 0 1 0 1 0 1 0 1 0 1 0 1 0 1 0 1 0 1 0 1 0 1 0 1 0 1 0 1 1 0 1 0 1 0 1 0 1 0 1 0 1 0 1 0 1 0 1 0 1 0 0.5 0.5 0 1 0 1 0 1 0 1 0 1 0 1 0 1 0 1 0 1 0 1 0 1 0 1 0 1 0 1 0 1 0 1 0 1 0 1 1 0 1 0 1 0 1 0 1 0 1 0 1 0 1 0 1 0 1 0 1 0 1 0 0.5 0.5 0 1 0 1 0 1 0 1 0 1 0 1 0 1 0 1 0 1 0 1 0 1 0 1 0 1 0 1 0 1 0 1 0 1 1 0 1 0 1 0 1 0 1 0 1 0 1 0 1 0 1 0 1 0 1 0 1 0 1 0 0.5 0.5 0 1 0 1 0 1 0 1 0 1 0 1 0 1 0 1 0 1 0 1 0 1 0 1 0 1 0 1 0 1 0 1 1 0 1 0 1 0 1 0 1 0 1 0 1 0 1 0 1 0 1 0 1 0 1 0 1 0 1 0 0.5 0.5 0 1 0 1 0 1 0 1 0 1 0 1 0 1 0 1 0 1 0 1 0 1 0 1 0 1 0 1 0 1 1 0 1 0 1 0 1 0 1 0 1 0 1 0 1 0 1 0 1 0 1 0 1 0 1 0 1 0 1 0 0.5 0.5 0 1 0 1 0 1 0 1 0 1 0 1 0 1 0 1 0 1 0 1 0 1 0 1 0 1 0 1 1 0 1 0 1 0 1 0 1 0 1 0 1 0 1 0 1 0 1 0 1 0 1 0 1 0 1 0 1 0 1 0 0.5 0.5 0 1 0 1 0 1 0 1 0 1 0 1 0 1 0 1 0 1 0 1 0 1 0 1 0 1 1 0 1 0 1 0 1 0 1 0 1 0 1 0 1 0 1 0 1 0 1 0 1 0 1 0 1 0 1 0 1 0 1 0 0.5 0.5 0 1 0 1 0 1 0 1 0 1 0 1 0 1 0 1 0 1 0 1 0 1 0 1 1 0 1 0 1 0 1 0 1 0 1 0 1 0 1 0 1 0 1 0 1 0 1 0 1 0 1 0 1 0 1 0 1 0 1 0 0.5 0.5 0 1 0 1 0 1 0 1 0 1 0 1 0 1 0 1 0 1 0 1 0 1 1 0 1 0 1 0 1 0 1 0 1 0 1 0 1 0 1 0 1 0 1 0 1 0 1 0 1 0 1 0 1 0 1 0 1 0 1 0 0.5 0.5 0 1 0 1 0 1 0 1 0 1 0 1 0 1 0 1 0 1 0 1 1 0 1 0 1 0 1 0 1 0 1 0 1 0 1 0 1 0 1 0 1 0 1 0 1 0 1 0 1 0 1 0 1 0 1 0 1 0 1 0 0.5 0.5 0 1 0 1 0 1 0 1 0 1 0 1 0 1 0 1 0 1 1 0 1 0 1 0 1 0 1 0 1 0 1 0 1 0 1 0 1 0 1 0 1 0 1 0 1 0 1 0 1 0 1 0 1 0 1 0 1 0 1 0 0.5 0.5 0 1 0 1 0 1 0 1 0 1 0 1 0 1 0 1 1 0 1 0 1 0 1 0 1 0 1 0 1 0 1 0 1 0 1 0 1 0 1 0 1 0 1 0 1 0 1 0 1 0 1 0 1 0 1 0 1 0 1 0 0.5 0.5 0 1 0 1 0 1 0 1 0 1 0 1 0 1 1 0 1 0 1 0 1 0 1 0 1 0 1 0 1 0 1 0 1 0 1 0 1 0 1 0 1 0 1 0 1 0 1 0 1 0 1 0 1 0 1 0 1 0 1 0 0.5 0.5 0 1 0 1 0 1 0 1 0 1 0 1 1 0 1 0 1 0 1 0 1 0 1 0 1 0 1 0 1 0 1 0 1 0 1 0 1 0 1 0 1 0 1 0 1 0 1 0 1 0 1 0 1 0 1 0 1 0 1 0 0.5 0.5 0 1 0 1 0 1 0 1 0 1 1 0 1 0 1 0 1 0 1 0 1 0 1 0 1 0 1 0 1 0 1 0 1 0 1 0 1 0 1 0 1 0 1 0 1 0 1 0 1 0 1 0 1 0 1 0 1 0 1 0 0.5 0.5 0 1 0 1 0 1 0 1 1 0 1 0 1 0 1 0 1 0 1 0 1 0 1 0 1 0 1 0 1 0 1 0 1 0 1 0 1 0 1 0 1 0 1 0 1 0 1 0 1 0 1 0 1 0 1 0 1 0 1 0 0.5 0.5 0 1 0 1 0 1 1 0 1 0 1 0 1 0 1 0 1 0 1 0 1 0 1 0 1 0 1 0 1 0 1 0 1 0 1 0 1 0 1 0 1 0 1 0 1 0 1 0 1 0 1 0 1 0 1 0 1 0 1 0 0.5 0.5 0 1 0 1 1 0 1 0 1 0 1 0 1 0 1 0 1 0 1 0 1 0 1 0 1 0 1 0 1 0 1 0 1 0 1 0 1 0 1 0 1 0 1 0 1 0 1 0 1 0 1 0 1 0 1 0 1 0 1 0 0.5 0.5 0 1 1 0 1 0 1 0 1 0 1 0 1 0 1 0 1 0 1 0 1 0 1 0 1 0 1 0 1 0 1 0 1 0 1 0 1 0 1 0 1 0 1 0 1 0 1 0 1 0 1 0 1 0 1 0 1 0 1 0 0.5 0.5</probabilities>
		</cpt>
		<deterministic id="current_risk_of_collision_towards_ship0" dynamic="plate">
			<state id="false" />
			<state id="true" />
			<parents>current_risk_of_collision_CPA_towards_ship0 current_risk_of_collision_front_towards_ship0</parents>
			<resultingstates>false true true true</resultingstates>
		</deterministic>
		<deterministic id="risk_of_collision_ship0" dynamic="plate">
			<state id="false" />
			<state id="true" />
			<parents>current_risk_of_collision_towards_ship0</parents>
			<resultingstates>false true</resultingstates>
		</deterministic>
		<deterministic id="observation_applicable_ship0" dynamic="plate">
			<state id="false" />
			<state id="true" />
			<parents>safely_passed_ship0 risk_of_collision_ship0 Observation_consistent_wrt_colregs_towards_ship0</parents>
			<resultingstates>true true false true true true true true</resultingstates>
		</deterministic>
		<cpt id="unmodelled_behaviour">
			<state id="false" />
			<state id="true" />
			<probabilities>0.999 0.001</probabilities>
		</cpt>
		<cpt id="observation_applicable" dynamic="plate">
			<state id="false" />
			<state id="true" />
			<parents>unmodelled_behaviour disable_ship0 observation_applicable_ship0</parents>
			<probabilities>0 1 0 1 1 0 0 1 0 1 0 1 0 1 0 1</probabilities>
		</cpt>
	</nodes>
	<dynamic numslices="2">
		<deterministic id="has_turned_portwards" order="1">
			<parents>has_turned_portwards</parents>
			<resultingstates>true true false true false true</resultingstates>
		</deterministic>
		<deterministic id="has_turned_starboardwards" order="1">
			<parents>has_turned_starboardwards</parents>
			<resultingstates>false true false true true true</resultingstates>
		</deterministic>
		<deterministic id="risk_of_collision_ship0" order="1">
			<parents>risk_of_collision_ship0</parents>
			<resultingstates>false true true true</resultingstates>
		</deterministic>
	</dynamic>
	<extensions>
		<genie version="1.0" app="GeNIe 4.1.3402.0 ACADEMIC" name="simplified">
			<plate leftwidth="100" rightwidth="100">185 637 1478 1779</plate>
			<node id="passed_ship0">
				<name>Passed ship0</name>
				<interior color="339966" />
				<outline color="003300" />
				<font color="000000" name="Arial" size="8" />
				<position>1040 1155 1120 1205</position>
				<barchart active="true" width="128" height="78" />
			</node>
			<node id="distance_at_cpa_towards_ship0">
				<name>Distance at CPA to ship0</name>
				<interior color="339966" />
				<outline color="003300" />
				<font color="000000" name="Arial" size="8" />
				<position>1202 1553 1299 1613</position>
				<comment>Original equation:\ndistance_at_cpa_towards_ship0=Uniform(0,600)\nBounds: (0, 600)</comment>
				<barchart width="128" height="918" />
			</node>
			<node id="safe_distance_at_CPA_towards_ship0">
				<name>Safe distance at CPA to ship0</name>
				<interior color="e5f6f7" />
				<outline color="000080" />
				<font color="000000" name="Arial" size="8" />
				<position>1158 1434 1286 1542</position>
				<comment>Original equation:\nsafe_distance_at_CPA_towards_ship0=distance_at_cpa_towards_ship0&gt;intention_safe_distance\nBounds: (0, 1)</comment>
				<barchart active="true" width="128" height="92" />
			</node>
			<node id="crossing_distance_front_towards_ship0">
				<name>Crossing distance front towards ship0</name>
				<interior color="339966" />
				<outline color="003300" />
				<font color="000000" name="Arial" size="8" />
				<position>1213 1088 1321 1155</position>
				<comment>Original equation:\ncrossing_distance_front_towards_ship0=Uniform(0,900)\nBounds: (0, 900)</comment>
				<barchart width="128" height="918" />
			</node>
			<node id="intention_safe_distance_front">
				<name>Intention: Safe distance front</name>
				<interior color="ff9900" />
				<outline color="993300" />
				<font color="000000" name="Arial" size="8" />
				<position>1479 1225 1582 1290</position>
				<comment>Original equation:\nintention_safe_distance_front=Min(TruncNormal(500,120,0),900)\nBounds: (0, 900)</comment>
				<barchart width="128" height="558" />
			</node>
			<node id="safe_crossing_front_towards_ship0">
				<name>Safe crossing front towards ship0</name>
				<interior color="e5f6f7" />
				<outline color="000080" />
				<font color="000000" name="Arial" size="8" />
				<position>1237 1204 1365 1312</position>
				<comment>Original equation:\nsafe_crossing_front_towards_ship0=crossing_distance_front_towards_ship0&gt;intention_safe_distance_front\nBounds: (0, 1)</comment>
				<barchart active="true" width="128" height="92" />
			</node>
			<node id="intention_ignoring_safety">
				<name>Intention: Ignoring safety</name>
				<interior color="ff9900" />
				<outline color="993300" />
				<font color="000000" name="Arial" size="8" />
				<position>1497 1348 1581 1400</position>
				<barchart active="true" width="121" height="78" />
			</node>
			<node id="safe_distance_to_ship0">
				<name>Safe distance to ship0</name>
				<interior color="e5f6f7" />
				<outline color="000080" />
				<font color="000000" name="Arial" size="8" />
				<position>1157 1320 1285 1428</position>
				<comment>Original equation:\nsafe_distance_to_ship0=And(safe_distance_at_CPA_towards_ship0&gt;0.5,safe_crossing_front_towards_ship0&gt;0.5)\nBounds: (0, 1)</comment>
				<barchart active="true" width="128" height="92" />
			</node>
			<node id="safely_passed_ship0">
				<name>Safely passed ship0</name>
				<interior color="e5f6f7" />
				<outline color="000080" />
				<font color="000000" name="Arial" size="8" />
				<position>1070 1044 1198 1108</position>
				<comment>Original equation:\nsafely_passed_ship0=And(passed_ship0=&quot;true&quot;,safe_distance_to_ship0&gt;0.5)\nBounds: (0, 1)</comment>
				<barchart active="true" width="128" height="78" />
			</node>
			<node id="change_in_course">
				<name>Change in course</name>
				<interior color="339966" />
				<outline color="003300" />
				<font color="000000" name="Arial" size="8" />
				<position>347 1332 475 1440</position>
				<barchart active="true" width="162" height="108" />
			</node>
			<node id="change_in_speed">
				<name>Change in speed</name>
				<interior color="339966" />
				<outline color="003300" />
				<font color="000000" name="Arial" size="8" />
				<position>418 1456 546 1564</position>
				<barchart active="true" width="128" height="108" />
			</node>
			<node id="stands_on_correctly">
				<name>Stands on correctly</name>
				<interior color="e5f6f7" />
				<outline color="000080" />
				<font color="000000" name="Arial" size="8" />
				<position>549 1273 646 1333</position>
				<comment>Original equation:\nstands_on_correctly=And(change_in_course=&quot;none&quot;,change_in_speed=&quot;similar&quot;)\nBounds: (0, 1)</comment>
				<barchart active="true" width="128" height="78" />
			</node>
			<node id="stands_on_correctly_or_forced_to_give_way">
				<name>Stands on correctly or forced to give way</name>
				<interior color="e5f6f7" />
				<outline color="000080" />
				<font color="000000" name="Arial" size="8" />
				<position>611 1077 739 1185</position>
				<comment>Original equation:\nstands_on_correctly_or_forced_to_give_way=stands_on_correctly\nBounds: (0, 1)</comment>
				<barchart active="true" width="128" height="78" />
			</node>
			<node id="colav_situation_towards_ship0">
				<name>Colav situation towards ship0</name>
				<interior color="ff9900" />
				<outline color="993300" />
				<font color="000000" name="Arial" size="8" />
				<position>702 1793 830 1901</position>
				<barchart active="true" width="128" height="122" />
			</node>
			<node id="priority_intention_to_ship0">
				<name>Intention: Priority to ship0</name>
				<interior color="ff9900" />
				<outline color="993300" />
				<font color="000000" name="Arial" size="8" />
				<position>1011 1804 1139 1876</position>
				<barchart active="true" width="128" height="108" />
			</node>
			<node id="role_towards_ship0">
				<name>Role towards ship0</name>
				<interior color="e5f6f7" />
				<outline color="000080" />
				<font color="000000" name="Arial" size="8" />
				<position>861 1771 983 1879</position>
				<comment>Original equation:\nrole_towards_ship0=If(priority_intention_to_ship0=&quot;lower&quot;,0,If(priority_intention_to_ship0=&quot;similar&quot;,colav_situation_towards_ship0&gt;2.5,1))\nBounds: (0, 1)</comment>
				<barchart active="true" width="128" height="78" />
			</node>
			<node id="two_times_distance_to_midpoint_at_cpa_to_ship0">
				<name>2x distance to midpoint at CPA to ship0</name>
				<interior color="339966" />
				<outline color="003300" />
				<font color="000000" name="Arial" size="8" />
				<position>1086 1574 1192 1640</position>
				<comment>Original equation:\ntwo_times_distance_to_midpoint_at_cpa_to_ship0=Uniform(0,600)\nBounds: (0, 600)</comment>
				<barchart width="128" height="918" />
			</node>
			<node id="intention_safe_distance_midpoint">
				<name>Intention: Safe distance between midpoints</name>
				<interior color="ff9900" />
				<outline color="993300" />
				<font color="000000" name="Arial" size="8" />
				<position>1478 1520 1606 1585</position>
				<comment>Original equation:\nintention_safe_distance_midpoint=Min(TruncNormal(300,75,0),600)\nBounds: (0, 600)</comment>
				<barchart width="128" height="558" />
			</node>
			<node id="safe_distance_to_midpoint_ship0">
				<name>Safe distance to midpoint ship0</name>
				<interior color="e5f6f7" />
				<outline color="000080" />
				<font color="000000" name="Arial" size="8" />
				<position>1151 1640 1279 1748</position>
				<comment>Original equation:\nsafe_distance_to_midpoint_ship0=two_times_distance_to_midpoint_at_cpa_to_ship0&gt;intention_safe_distance_midpoint\nBounds: (0, 1)</comment>
				<barchart active="true" width="128" height="92" />
			</node>
			<node id="GW_HO_correct_ship0">
				<name>GW HO correct ship0</name>
				<interior color="e5f6f7" />
				<outline color="000080" />
				<font color="000000" name="Arial" size="8" />
				<position>909 1635 1037 1743</position>
				<comment>Original equation:\nGW_HO_correct_ship0=safe_distance_to_midpoint_ship0&gt;0.5\nBounds: (0, 1)</comment>
				<barchart active="true" width="107" height="92" />
			</node>
			<node id="GW_CR_SS_correct_ship0">
				<name>GW CR SS correct ship0</name>
				<interior color="e5f6f7" />
				<outline color="000080" />
				<font color="000000" name="Arial" size="8" />
				<position>908 1234 1036 1342</position>
				<comment>Original equation:\nGW_CR_SS_correct_ship0=(safe_distance_to_ship0&gt;0.5)*(aft_front_crossing_side_to_ship0&lt;0.5)\nBounds: (0, 1)</comment>
				<barchart active="true" width="108" height="92" />
			</node>
			<node id="GW_OT_ing_correct_ship0">
				<name>GW OTing correct ship0</name>
				<interior color="e5f6f7" />
				<outline color="000080" />
				<font color="000000" name="Arial" size="8" />
				<position>910 1536 1038 1644</position>
				<comment>Original equation:\nGW_OT_ing_correct_ship0=safe_distance_to_ship0&gt;0.5\nBounds: (0, 1)</comment>
				<barchart active="true" width="108" height="92" />
			</node>
			<node id="GW_CR_PS_correct_ship0">
				<name>GW CR PS correct ship0</name>
				<interior color="e5f6f7" />
				<outline color="000080" />
				<font color="000000" name="Arial" size="8" />
				<position>909 1334 1037 1442</position>
				<comment>Original equation:\nGW_CR_PS_correct_ship0=And(safe_distance_to_ship0&gt;0.5,1-(change_in_course=&quot;portwards&quot;))\nBounds: (0, 1)</comment>
				<barchart active="true" width="109" height="92" />
			</node>
			<node id="GW_OT_en_correct_ship0">
				<name>GW OTen correct ship0</name>
				<interior color="e5f6f7" />
				<outline color="000080" />
				<font color="000000" name="Arial" size="8" />
				<position>909 1436 1037 1544</position>
				<comment>Original equation:\nGW_OT_en_correct_ship0=safe_distance_to_ship0&gt;0.5\nBounds: (0, 1)</comment>
				<barchart active="true" width="108" height="92" />
			</node>
			<node id="intention_colregs_compliant">
				<name>Intention: COLREGS compliant</name>
				<interior color="ff9900" />
				<outline color="993300" />
				<font color="000000" name="Arial" size="8" />
				<position>1482 993 1610 1057</position>
				<barchart active="true" width="128" height="78" />
			</node>
			<node id="gives_way_correct_towards_ship0">
				<name>Gives way correctly towards ship0</name>
				<interior color="e5f6f7" />
				<outline color="000080" />
				<font color="000000" name="Arial" size="8" />
				<position>699 1439 827 1547</position>
				<comment>Original equation:\ngives_way_correct_towards_ship0=If(intention_colregs_compliant=&quot;false&quot;,safe_distance_to_ship0&gt;0.5,If(colav_situation_towards_ship0&lt;0.5,GW_HO_correct_ship0&gt;0.5,If(colav_situation_towards_ship0&lt;1.5,GW_CR_SS_correct_ship0&gt;0.5,If(colav_situation_towards_ship0&lt;2.5,GW_OT_ing_correct_ship0&gt;0.5,If(colav_situation_towards_ship0&lt;3.5,GW_CR_PS_correct_ship0&gt;0.5,GW_OT_en_correct_ship0&gt;0.5)))))\nBounds: (0, 1)</comment>
				<barchart active="true" width="128" height="92" />
			</node>
			<node id="intention_ample_time">
				<name>Intention: Ample time</name>
				<interior color="ff9900" />
				<outline color="993300" />
				<font color="000000" name="Arial" size="8" />
				<position>572 1786 689 1850</position>
				<comment>Original equation:\nintention_ample_time=Min(TruncNormal(360,75,0),600)\nBounds: (0, 600)</comment>
				<barchart width="128" height="558" />
			</node>
			<node id="time_untill_closest_point_of_approach_towards_ship0">
				<name>Time untill CPA towards ship0</name>
				<interior color="339966" />
				<outline color="003300" />
				<font color="000000" name="Arial" size="8" />
				<position>648 1635 751 1699</position>
				<comment>Original equation:\ntime_untill_closest_point_of_approach_towards_ship0=Uniform(0,600)\nBounds: (0, 600)</comment>
				<barchart width="128" height="918" />
			</node>
			<node id="is_pre_ample_time_to_ship0">
				<name>Is pre ample time to ship0</name>
				<interior color="e5f6f7" />
				<outline color="000080" />
				<font color="000000" name="Arial" size="8" />
				<position>564 1409 692 1517</position>
				<comment>Original equation:\nis_pre_ample_time_to_ship0=time_untill_closest_point_of_approach_towards_ship0&gt;intention_ample_time\nBounds: (0, 1)</comment>
				<barchart active="true" width="109" height="92" />
			</node>
			<node id="intention_good_seamanship">
				<name>Intention: Good seamanship</name>
				<interior color="ff9900" />
				<outline color="993300" />
				<font color="000000" name="Arial" size="8" />
				<position>70 992 165 1051</position>
				<barchart active="true" width="118" height="68" />
			</node>
			<node id="has_turned_portwards">
				<name>Has turned portwards</name>
				<interior color="e5f6f7" />
				<outline color="000080" />
				<font color="000000" name="Arial" size="8" />
				<position>336 1141 415 1190</position>
				<barchart active="true" width="134" height="78" />
			</node>
			<node id="has_turned_starboardwards">
				<name>Has turned starboardwards</name>
				<interior color="e5f6f7" />
				<outline color="000080" />
				<font color="000000" name="Arial" size="8" />
				<position>481 1136 581 1198</position>
				<barchart active="true" width="132" height="92" />
			</node>
			<node id="good_seamanship_to_ship0">
				<name>Good seamanship wrt ship0</name>
				<interior color="e5f6f7" />
				<outline color="000080" />
				<font color="000000" name="Arial" size="8" />
				<position>474 991 569 1050</position>
				<barchart active="true" width="115" height="92" />
			</node>
			<node id="GWC_or_pre_ample_time_towards_ship0">
				<name>GWC or pre ample time towards ship0</name>
				<interior color="e5f6f7" />
				<outline color="000080" />
				<font color="000000" name="Arial" size="8" />
				<position>697 1187 825 1295</position>
				<comment>Original equation:\nGWC_or_pre_ample_time_towards_ship0=Or(And(gives_way_correct_towards_ship0&gt;0.5,good_seamanship=&quot;true&quot;),And(is_pre_ample_time_to_ship0&gt;0.5,stands_on_correctly_or_forced_to_give_way&gt;0.5))\nBounds: (0, 1)</comment>
				<barchart active="true" width="128" height="78" />
			</node>
			<node id="Observation_consistent_wrt_colregs_towards_ship0">
				<name>Following COLREGS wrt ship0</name>
				<interior color="e5f6f7" />
				<outline color="000080" />
				<font color="000000" name="Arial" size="8" />
				<position>751 968 879 1076</position>
				<comment>Original equation:\nObservation_applicable_towards_ship0=Or(safely_passed_ship0&gt;0.5,And(role_towards_ship0&gt;0.5,stands_on_correctly_or_forced_to_give_way&gt;0.5),And(role_towards_ship0&lt;0.5,GWC_or_pre_ample_time_towards_ship0&gt;0.5))\nBounds: (0, 1)</comment>
				<barchart active="true" width="128" height="92" />
			</node>
			<node id="disable_ship0">
				<name>Disable ship0</name>
				<interior color="339966" />
				<outline color="003300" />
				<font color="000000" name="Arial" size="8" />
				<position>1117 747 1192 793</position>
				<barchart active="true" width="128" height="78" />
			</node>
			<node id="observation_applicable">
				<name>Observation explicable</name>
				<interior color="e5f6f7" />
				<outline color="000080" />
				<font color="000000" name="Arial" size="8" />
				<position>936 742 1018 793</position>
				<comment>Original equation:\nobservation_applicable=Or(intention_unmodeled_behaviour&lt;0.5,Observation_applicable_towards_ship0&gt;0.5)\nBounds: (0, 1)</comment>
				<barchart active="true" width="128" height="92" />
			</node>
			<node id="crossing_with_other_on_port_side_to_ship0">
				<name>Ship0 on port side</name>
				<interior color="339966" />
				<outline color="003300" />
				<font color="000000" name="Arial" size="8" />
				<position>874 1115 979 1180</position>
				<barchart active="true" width="128" height="92" />
			</node>
			<node id="unmodelled_behaviour">
				<name>Unmodelled behaviour</name>
				<interior color="ff9900" />
				<outline color="993300" />
				<font color="000000" name="Arial" size="8" />
				<position>919 567 1037 640</position>
				<barchart active="true" width="128" height="64" />
			</node>
			<node id="crossing_with_midpoint_on_side_ship0">
				<name>Crossing with midpoint on side ship0</name>
				<interior color="339966" />
				<outline color="003366" />
				<font color="000000" name="Arial" size="8" />
				<position>783 1657 888 1722</position>
			</node>
			<node id="is_changing_course">
				<name>Is changing course</name>
				<interior color="339966" />
				<outline color="003300" />
				<font color="000000" name="Arial" size="8" />
				<position>505 1637 608 1701</position>
			</node>
			<node id="observation_applicable_ship0">
				<name>Behaving safely towards ship0</name>
				<interior color="e5f6f7" />
				<outline color="000080" />
				<font color="000000" name="Arial" size="8" />
				<position>908 838 1036 946</position>
				<comment>Original equation:\nObservation_applicable_towards_ship0=Or(safely_passed_ship0&gt;0.5,And(role_towards_ship0&gt;0.5,stands_on_correctly_or_forced_to_give_way&gt;0.5),And(role_towards_ship0&lt;0.5,GWC_or_pre_ample_time_towards_ship0&gt;0.5))\nBounds: (0, 1)</comment>
				<barchart active="true" width="141" height="92" />
			</node>
			<node id="lowres_distance_at_cpa_to_ship0">
				<name>Distance at CPA to ship0</name>
				<interior color="339966" />
				<outline color="003300" />
				<font color="000000" name="Arial" size="8" />
				<position>492 657 589 717</position>
				<comment>Original equation:\nlowres_distance_at_cpa_towards_ship0=Uniform(0,1500)\nBounds: (0, 1500)</comment>
			</node>
			<node id="intention_distance_risk_of_collision">
				<name>Intention: Distance risk of collision</name>
				<interior color="ff9900" />
				<outline color="993300" />
				<font color="000000" name="Arial" size="8" />
				<position>591 556 707 637</position>
				<comment>Original equation:\nintention_distance_risk_of_collision=Min(TruncNormal(1000,175,0),1500)\nBounds: (0, 1500)</comment>
			</node>
			<node id="current_risk_of_collision_CPA_towards_ship0">
				<name>Risk of collision CPA towards ship0</name>
				<interior color="e5f6f7" />
				<outline color="000080" />
				<font color="000000" name="Arial" size="8" />
				<position>494 731 622 839</position>
				<comment>Original equation:\nCurrent_risk_of_collision_CPA_towards_ship0=lowres_distance_at_cpa_towards_ship0&lt;intention_distance_risk_of_collision\nBounds: (0, 1)</comment>
				<barchart active="true" width="140" height="92" />
			</node>
			<node id="lowres_crossing_distance_front_towards_ship0">
				<name>Crossing distance front towards ship0</name>
				<interior color="339966" />
				<outline color="003300" />
				<font color="000000" name="Arial" size="8" />
				<position>291 660 399 727</position>
				<comment>Original equation:\nlowres_crossing_distance_front_towards_ship0=Uniform(0,2250)\nBounds: (0, 2250)</comment>
			</node>
			<node id="intention_distance_risk_of_collision_front">
				<name>Intention: Distance risk of collision front</name>
				<interior color="ff9900" />
				<outline color="993300" />
				<font color="000000" name="Arial" size="8" />
				<position>386 556 510 637</position>
				<comment>Original equation:\nintention_distance_risk_of_collision_front=Min(TruncNormal(1500,250,0),2250)\nBounds: (0, 2250)</comment>
			</node>
			<node id="current_risk_of_collision_front_towards_ship0">
				<name>Rrisk of collision front towards ship0</name>
				<interior color="e5f6f7" />
				<outline color="000080" />
				<font color="000000" name="Arial" size="8" />
				<position>313 733 441 841</position>
				<comment>Original equation:\nCurrent_risk_of_collision_front_towards_ship0=lowres_crossing_distance_front_towards_ship0&lt;intention_distance_risk_of_collision_front\nBounds: (0, 1)</comment>
				<barchart active="true" width="141" height="92" />
			</node>
			<node id="current_risk_of_collision_towards_ship0">
				<name>Risk of collision towards ship0</name>
				<interior color="e5f6f7" />
				<outline color="000080" />
				<font color="000000" name="Arial" size="8" />
				<position>425 839 553 947</position>
				<comment>Original equation:\nCurrent_risk_of_collision_towards_ship0=Or(Current_risk_of_collision_CPA_towards_ship0&gt;0.5,Current_risk_of_collision_front_towards_ship0&gt;0.5)\nBounds: (0, 1)</comment>
				<barchart active="true" width="137" height="92" />
			</node>
			<node id="risk_of_collision_ship0">
				<name>Risky situation towards ship0</name>
				<interior color="e5f6f7" />
				<outline color="000080" />
				<font color="000000" name="Arial" size="8" />
				<position>651 841 779 949</position>
				<comment>Original equation:\nrisk_of_collision_towards_ship0=Or(risk_of_collision_towards_ship0_t_1&gt;0.5,Current_risk_of_collision_towards_ship0&gt;0.5)\nBounds: (0, 1)</comment>
				<barchart active="true" width="134" height="92" />
			</node>
		</genie>
	</extensions>
</smile>
